66 128
el 0.005979477 -0.027259903 0.05631728 0.02488822 -0.016624687 -0.04717194 0.0040698824 0.03422986 -0.01768442 -0.019328661 0.04658723 -0.023119582 -0.029006964 -0.008733121 0.016913462 0.0036797356 0.018958809 0.023951445 -0.021635706 -0.009838961 0.044973224 0.056482367 0.03872133 -0.035023663 -0.008386812 -0.0023119762 -0.033685517 0.04689948 0.0055516134 -0.024671871 -0.063825235 0.0029622528 0.019468293 -0.00271679 -0.009418822 0.0007531874 0.06813737 -0.004375279 0.03712043 -0.015570198 -0.02971088 0.026730703 -0.013319697 -0.03755697 0.032772455 0.020299943 -0.031804755 -0.009889711 -0.0040686633 0.03252085 0.022742018 0.008191871 0.021285841 0.028077682 0.03734213 0.011715857 0.058984466 -0.020224247 -0.029405972 0.027680466 -0.0034346944 -0.022349142 0.013457696 -0.022204993 0.0055434415 0.0014879194 0.007914497 0.02188484 0.00041622345 0.00018813505 0.029182104 0.015963813 -0.05624475 -0.04946368 0.009173554 -0.037128314 0.0006559564 0.015407054 -0.02966089 0.027860502 -0.017144201 -0.0076691043 0.04683193 0.071517095 0.03052122 0.0116303 0.057279818 -0.023760797 0.022353658 0.054546583 -0.026608022 -0.047226436 -0.0046679615 0.0062515703 0.06306462 0.010575767 -0.033675987 -0.05213516 -0.009053017 -0.014457003 -0.053256605 0.008357159 0.010063313 0.023057764 0.029626315 -0.03878427 0.009111516 -0.006013487 -0.012779916 -0.05311833 0.010610817 -0.019838616 -0.004886921 0.026116401 -0.012187822 -0.00096631737 0.040122233 0.050508227 0.012425022 0.0023946937 -0.012648659 -0.020409565 0.012607024 -0.0023358245 0.008964708 -0.007229081 -0.038915455 0.015952537
en 0.0028668176 -0.013582632 0.04372826 0.008652215 -0.006972325 -0.033255868 0.0024001438 0.02094263 -0.004182136 -0.006403189 0.035821985 -0.0076021994 -0.011327606 -0.015085636 0.0071972674 0.0033472169 0.009118822 0.02205066 -0.005587049 -0.0028450957 0.028007466 0.03754608 0.029132698 -0.031920217 -0.009134502 0.0030045009 -0.023248838 0.0358494 0.01503093 -0.009658963 -0.040409163 0.008411427 0.0014195925 0.0045897854 -0.008895914 -0.002250628 0.04525421 0.0044091335 0.031641565 -0.012760756 -0.009453711 0.02076273 -0.007284708 -0.030451449 0.026863601 0.019241989 -0.01841355 -0.01724102 -0.010893686 0.015495585 0.024163658 0.0002532019 0.009471872 0.02176451 0.02500412 0.0053453892 0.039085977 -0.011856915 -0.018210031 0.006145779 0.00048056437 -0.01923157 0.012240177 -0.012713599 0.006416047 -0.00645664 0.0040246192 0.014175525 0.0059236265 -0.0029047453 0.009658659 0.010012439 -0.037759256 -0.026737282 -0.0014770414 -0.026873982 0.002523267 0.016746273 -0.02174982 0.026044104 -0.017893648 -0.0018728182 0.025434839 0.043115932 0.031354412 0.007605338 0.041959144 -0.01865711 0.021124134 0.041594073 -0.025703011 -0.036769234 -0.010430626 0.00039076325 0.035111822 -0.0020313435 -0.012240486 -0.03577464 4.75287e-05 -0.009280928 -0.037274785 0.0068542985 0.008558247 0.0070284144 0.010580663 -0.025284583 -0.000977655 -0.008612212 -0.007746141 -0.030775331 0.008604163 -0.00980678 -0.004796866 0.015415268 -0.010763782 0.0007896022 0.026982713 0.03422413 0.011650321 -0.00020019968 -0.013467777 -0.012356107 0.0051894775 0.0015342244 -0.003087529 -0.012740255 -0.031248208 0.003883783
la 0.00279394 -0.021932315 0.029811805 0.008736839 -0.0027888739 -0.030760288 0.0055137547 0.0193916 -0.014776827 -0.0034544305 0.033497367 -0.010418453 -0.022398809 -0.004700751 0.01703739 0.0073719956 0.0146770645 0.016942086 -0.012353888 0.004528698 0.03375672 0.03813701 0.020084418 -0.023866203 -0.007936983 -0.0063962555 -0.028435744 0.028119026 0.008664517 -0.018859051 -0.04234594 -0.0034064078 0.01443663 0.0023752102 -0.008534436 0.006246573 0.04853291 -0.0031518352 0.030968111 -0.003813187 -0.010146343 0.015425602 0.0022609555 -0.028473407 0.015406897 0.020796265 -0.017445937 -0.0133703435 -0.0018902041 0.013667944 0.021893669 0.008252855 0.02114045 0.0124640195 0.027689617 0.013686934 0.040032808 -0.014859876 -0.011154159 0.011986068 0.005415804 -0.019127712 0.004905707 -0.0056227148 0.0058145504 -0.0019398449 0.013133023 0.019161228 -0.005916482 0.00079459505 0.02148053 0.009265316 -0.035387427 -0.028005354 0.00427649 -0.028384704 -0.009104554 0.009211061 -0.015377113 0.029959528 -0.003852586 -0.011530915 0.021012703 0.051991984 0.026288938 0.010853519 0.04005488 -0.01573409 0.022151895 0.03483686 -0.016354341 -0.033592638 -0.007613104 0.0021888155 0.04069048 0.004509546 -0.025217067 -0.039014675 -0.011575653 -0.013153057 -0.029336087 0.011015126 0.008406175 0.009114309 0.016230464 -0.019186273 0.011477325 -0.00817453 -0.0036888146 -0.036960825 0.006627676 -0.0025311843 -0.0021046451 0.0060294694 -0.0053447033 -0.007441009 0.022106042 0.03771523 0.008349609 -0.002060826 -0.0139787365 -0.0057966723 -0.0006650868 0.0053853896 -0.0015813549 -0.0014307171 -0.02014249 0.010610027
gato 0.0018229767 -0.015722852 0.032370575 0.012634927 -0.0061610057 -0.027758649 -0.006502172 0.012338754 -0.007236788 -0.0099497 0.027756754 -0.010922702 -0.007880767 -0.012679316 0.008226126 -0.0018218583 0.0027231735 0.012282563 -0.0127922455 -0.0031690078 0.022064818 0.030281227 0.017269246 -0.01563512 -0.009628074 0.0059042578 -0.021091951 0.02421135 -0.0007452778 -0.008934755 -0.032209717 -0.0016331036 0.0033650985 0.006021515 0.00089202693 -0.002558703 0.030842844 -0.006646385 0.024226658 0.0014178756 -0.012938863 0.0116541125 -0.0024382842 -0.012577452 0.009242583 0.010288319 -0.0072147576 -0.0068880846 -0.0030857865 0.005024974 0.021057107 -0.0028617587 0.009744763 0.016140014 0.014308028 0.008453286 0.028390672 -0.012594727 -0.020635022 0.01705424 0.0037987148 -0.016317679 0.010869959 -0.007901253 0.0069457493 -0.0056751585 0.0074054142 0.0120683 0.008999703 -0.0044444124 0.011126259 -0.0012607188 -0.034536038 -0.027859025 0.0018388608 -0.023574729 0.0012086394 0.0031655454 -0.011480415 0.01743141 -0.010727194 -0.0057296585 0.028444517 0.03963069 0.0136697 0.012092646 0.021314615 -0.0052613663 0.0096621625 0.026674632 -0.0111865355 -0.017809523 -0.0055088745 0.009749589 0.033260707 -0.0042708805 -0.019186972 -0.028886039 -0.0024880313 -0.011753663 -0.02807254 -0.0037069893 0.009449818 0.010681176 0.004398115 -0.020538477 0.00643993 -0.008845301 -0.0010360247 -0.02705894 0.0074453866 -0.012809896 0.0046111196 0.0136806 -0.0065944158 -0.0009936343 0.010094775 0.02345335 0.0066715768 -0.0060353028 -0.014687251 -0.009413797 0.006194127 0.0054947655 -0.0033161268 -0.009993406 -0.02120738 0.004374223
perro -0.0026703873 -0.021538142 0.023949543 0.0021962062 -0.009360353 -0.02539814 -0.0025046754 0.012187759 -0.013913756 -0.008739073 0.027034901 -0.0048582167 -0.018593729 -0.009867293 0.012978406 -0.004865188 0.009655327 0.016784573 -0.002856352 -0.008125552 0.016173057 0.020058092 0.016636964 -0.010602182 -0.0019313577 0.004239659 -0.012659975 0.018819472 0.013597998 -0.01657327 -0.03484639 7.119471e-05 0.0053454703 -0.0010936852 -0.0042100092 0.00724403 0.03041595 -0.0011947996 0.02081349 -0.012624196 -0.004820276 0.018018765 -0.010712412 -0.015495541 0.024345636 0.004292882 -0.01847056 -0.015166676 0.0024594467 0.01202011 0.02216044 -0.004178575 0.0153115 0.015869714 0.016114013 0.009404411 0.022051133 -0.014783989 -0.011551643 0.014877661 0.005210433 -0.006822503 0.00793152 -0.0017763919 -0.0039540892 0.0025678268 0.0046490747 0.011955022 0.007115244 -0.006109711 0.01689508 -0.0027068502 -0.02848416 -0.027954968 -0.0012568361 -0.011627393 -0.004221137 0.010526984 -0.0065938826 0.024511429 -0.014900477 -0.0073721106 0.028983558 0.037200503 0.016703045 -0.0018059263 0.028828766 -0.015365581 0.018954981 0.02132945 -0.014815217 -0.02314607 -0.0038458447 0.0039341943 0.032845773 0.003384504 -0.015907258 -0.024653057 -0.00021732214 -0.008667144 -0.023906661 0.010196959 -0.0008081562 0.008602889 0.019143831 -0.01180467 0.0052508204 -0.012497291 -0.00452086 -0.026116468 0.012877838 -0.0056376946 0.0008712497 0.012177259 -0.008850249 -0.007304691 0.017672237 0.020826671 0.012836928 0.008527402 -0.007869793 -0.006223552 -0.0019947833 0.0040138722 -0.0036496508 -0.0117660165 -0.022379806 -0.0007555037
casa 0.008444212 -0.01660655 0.029316615 0.0020772498 -0.0014419524 -0.010510177 -0.0065826764 0.003939572 -0.009341095 -0.009151716 0.017593851 -0.016455267 -0.017774627 -0.0037640939 0.0026730972 -0.0049033468 0.005417229 0.0033407528 -0.012101242 -0.007824272 0.016748628 0.019275952 0.01971248 -0.014406989 -0.008395189 0.0049296934 -0.018899135 0.014826184 -0.0006199585 -0.012736762 -0.026648207 0.0066801496 0.0029894714 0.0051954826 0.0021418347 -0.004813152 0.030464405 0.004957081 0.01381501 3.1326923e-05 -0.004892271 0.004734086 -0.008039401 -0.012911128 0.013035922 0.0041468623 -0.0038636224 -0.011683844 -0.008546301 0.010921108 0.010638089 0.002243418 0.007868228 0.011466591 0.01271973 0.0072890385 0.030541617 -0.011054982 -0.012886556 0.013233836 0.0054189833 -0.013145892 0.014233872 -0.00074503693 -0.0005784271 2.1799775e-05 0.0070041795 0.0044951322 -0.0032026723 -0.005804901 0.010309147 0.003935227 -0.020580826 -0.020388938 0.002349194 -0.014499602 0.0015552699 0.00708406 -0.016945088 0.0077746212 -0.0071280645 0.0009452414 0.019739192 0.021831756 0.009058076 0.009492891 0.019997094 -0.003942605 0.005516264 0.027959194 -0.017115526 -0.018078359 -0.004165883 -0.002704823 0.02165429 0.0020207225 -0.01595185 -0.02129346 -0.010278841 -0.006330073 -0.013045193 0.00059917924 0.0018637218 0.010807031 0.017205136 -0.019442244 -0.0018834379 -0.0069835056 0.0025791305 -0.020360844 -0.00199175 -0.0069956556 0.0072481525 0.0029849766 -0.010579662 0.004512432 0.008018408 0.022477971 0.007025896 0.0063576815 0.0002728647 -0.009447102 -0.00059728965 0.009354511 0.0032786464 0.0009532815 -0.022754801 0.0129991695
pájaro 0.0018481592 -0.018278047 0.027966484 0.008507474 -0.0007442851 -0.022155887 -0.003791795 0.01500818 4.7846283e-05 -0.012084505 0.022281239 -0.016911829 -0.017977014 -0.0071477154 0.003313023 0.004696111 0.009467207 0.009666318 -0.0033293066 0.0063352743 0.02580521 0.024372278 0.017953353 -0.020598257 -0.012982025 0.005076135 -0.017773781 0.020293828 0.004369826 -0.014180686 -0.025277777 -0.0013856154 -0.0016934334 0.008398382 -0.00023186862 0.008461448 0.03561387 0.0023583316 0.02594666 -0.00943742 -0.01602788 0.0144692855 -0.00023208583 -0.02140163 0.023886895 0.007228519 -0.0053653964 -0.007977275 -0.008758315 0.010936322 0.008567892 -3.9713974e-05 0.012885129 0.02097166 0.022454042 0.0022818837 0.029762732 -0.0052241525 -0.015120378 0.0026994888 -0.00025489624 -0.01740567 0.01327226 -0.012575125 0.0074934475 0.0075966474 0.004092033 0.012343899 -0.00024160318 0.0050097895 0.015421997 -0.002559076 -0.029076152 -0.018023206 0.0026686979 -0.019326938 -0.0033867476 0.0065323976 -0.012961307 0.020261712 -0.011234112 -0.007910953 0.02077528 0.032727383 0.017304227 0.0010179622 0.029437125 -0.0114712985 0.01388022 0.024920603 -0.008964873 -0.028796058 -0.0091103865 -0.0007082556 0.03486515 0.001964812 -0.020470416 -0.023190595 -0.008318545 -0.0048264754 -0.030219875 0.0050275647 -0.0042564115 0.0102614 0.01650953 -0.010775404 -0.0018852454 -0.010041478 -0.010544267 -0.029912304 -0.0020410905 -0.0082698 -0.00096574286 0.0042435825 -0.002030071 -0.0024139292 0.02160816 0.023000397 0.008043161 -0.0044188523 -0.008911638 -0.004809245 -0.00095061667 0.003351468 0.0040762923 -0.0058501544 -0.009500148 0.012644048
al 0.0051317196 -0.0087274145 0.031602524 0.004658199 -0.008720774 -0.02663058 -0.0067490833 0.02051185 -0.00849305 -0.013980811 0.017893165 -0.0071051195 -0.015598353 -0.010151018 0.012073507 0.00053574244 0.0074834735 0.012888302 -0.009845978 0.0055108955 0.023333853 0.019280484 0.022074552 -0.023628836 -0.0062987963 0.0037060336 -0.02107905 0.020371977 0.012564408 -0.0145335905 -0.035876155 0.009202099 0.004573737 -0.0021327778 0.00302797 0.004766847 0.035262313 0.007276279 0.012519798 -0.0019609944 -0.009638476 0.015038048 -0.002125482 -0.014405592 0.020620411 0.015338113 -0.015929826 -0.0127648935 -0.0044956924 0.0150548015 0.012539898 0.0071389666 0.016132472 0.02024172 0.017903427 0.01418245 0.027533174 -0.0010887086 -0.010911907 0.0039411914 -0.0043026544 -0.013720069 0.012574592 -0.008989575 0.0011423426 0.0060818656 0.011943164 0.007946686 -0.0027991112 -0.0046319147 0.009161354 -0.0028369506 -0.027517064 -0.02518629 0.0048801242 -0.014993059 -0.0058673667 0.00066609745 -0.0129296575 0.012701286 -0.006484332 -0.008261657 0.027320055 0.034744717 0.0211508 0.0028478783 0.025956409 -0.004326035 0.014189281 0.021154895 -0.020525478 -0.023703916 0.0013679857 0.0075289398 0.021823464 0.010107876 -0.01073125 -0.018188154 0.002777227 -0.015890706 -0.031088907 0.0073583247 0.010445183 0.012266111 0.017906938 -0.018747456 0.010502049 -0.013050529 -0.011767746 -0.030099237 0.0023771704 -0.0029328358 -0.003227159 0.003881046 -0.0011134021 -0.006410519 0.024752961 0.019160446 0.01099593 0.005329249 -0.005700299 -0.011068599 0.005369647 -0.0037839517 -0.00047537754 -0.007064658 -0.012456378 0.0037661118
jardín -0.00236799 -0.009335496 0.023596859 0.005229057 0.001136351 -0.015952166 -0.0034949486 0.01292641 0.0009620583 -0.0014984187 0.023808124 -0.0061638663 -0.0098555945 -0.007801612 0.0045551625 0.002083257 0.0066279955 0.010133164 -0.011786881 0.0045736628 0.0127830235 0.01834945 0.013034566 -0.017539302 -0.012083329 0.0006952372 -0.019194225 0.018467302 -0.00046873523 -0.008252524 -0.023900624 0.0015317196 0.0010850799 4.932929e-05 0.0021813384 0.0041918755 0.021367878 -0.0025923168 0.019022468 -0.0037820262 -0.017383976 0.013986687 -0.00971589 -0.02149462 0.0177418 0.0065892525 -0.009109776 -0.0010138317 -0.006426986 0.018719317 0.014794636 0.009762557 0.015697429 0.005343916 0.0116006 0.011945064 0.029816769 3.9746614e-05 -0.0067953886 0.015515408 -0.008760723 -0.0068841255 0.0035722523 -0.004718087 0.0078231115 0.0031999522 0.009802648 0.009319127 0.00011616315 0.0038406064 0.0070249834 0.0042879367 -0.017942853 -0.02367189 0.005534477 -0.023566874 0.00536935 0.013748845 -0.011429377 0.019984996 -0.0064589544 -0.009457661 0.018360704 0.035468295 0.012502161 0.0014838062 0.028091026 -0.0071082916 0.009939349 0.020391874 -0.007945566 -0.026239747 -0.005838445 -0.002227342 0.022210674 -0.0038178966 -0.015895888 -0.027981978 -0.0033750385 -0.015768727 -0.029092276 -0.0038898522 -0.002561874 0.0138319135 0.013935231 -0.015221593 0.0014399134 -0.010948005 -0.0043163016 -0.021672174 0.005024674 -0.005328405 0.00031054643 0.0093703475 -0.01310336 -0.007595504 0.009381532 0.019490361 0.008404477 0.007031596 -0.008129167 -0.009505881 0.010161131 0.0024796438 -0.00035813547 0.002342558 -0.013912936 0.0015432459
parque 0.008155325 -0.009124094 0.018239656 0.007817357 -0.0035462156 -0.014529355 -0.0018445804 0.010117958 -0.0048958138 -0.0067264484 0.019398397 -0.012096238 -0.016265389 -0.00059386814 0.015528728 0.008789933 0.0008242266 0.012657563 -0.009612788 0.0066017946 0.020272627 0.027582781 0.016898511 -0.010758666 -0.010557041 0.0064875605 -0.016815685 0.015936667 0.0038737515 -0.0021693911 -0.031960987 7.344422e-05 0.010899285 0.001279886 -0.00832595 -0.0037842325 0.035113044 0.0052093747 0.020659069 -0.007924832 -0.017436227 0.013338725 0.0026366771 -0.019901194 0.008753225 0.0071270666 -0.015537485 -0.009868366 -0.0051924065 0.0073792203 0.020742534 -0.005212152 0.01488478 0.016644763 0.012875145 0.013978425 0.03303728 -0.011127182 -0.016831506 0.0037283807 -0.006991151 -0.01283021 0.0033700396 -0.013988463 0.0036869312 0.0020267325 0.008924912 0.005909698 -0.0023930925 0.00025243752 0.011515539 0.010593041 -0.025099216 -0.013418074 -0.003878876 -0.010515333 -0.003927945 0.014263922 -0.018454073 0.017383924 -0.006755343 -0.0046246536 0.015320447 0.022721658 0.010436552 -0.0017083599 0.025572011 -0.008888078 0.010052322 0.028137825 -0.014565261 -0.02268025 -0.010170183 -0.004984156 0.032315996 -0.0014272082 -0.01733078 -0.017286321 0.00077855086 -0.014231123 -0.020465368 -0.002196868 0.003922765 0.0048438413 0.008100588 -0.013687568 0.010390241 0.00032589945 -0.012407121 -0.026374187 0.01119781 -0.0044827955 -0.003414566 0.009786416 0.0006766347 -0.004007848 0.008361545 0.021711614 0.011879792 0.0063047064 -0.003205718 -0.012150003 0.0023798964 0.0026113705 0.0052191815 -0.01090504 -0.022332573 0.005890701
árbol -0.004262025 -0.0071146726 0.02170201 0.015487861 -0.0079499725 -0.017877158 0.0055445717 0.00814986 -0.009540603 -0.0060138186 0.019461997 -0.011149913 -0.0058181095 -0.012060895 0.011469217 0.0026785296 0.014018095 0.014509397 -0.000828276 0.005086836 0.008955241 0.029834734 0.00818538 -0.017132431 -0.009538829 -0.0036604435 -0.020227807 0.0118749635 0.0013622651 -0.010269391 -0.028489789 0.006324222 -0.0024766738 -0.002891611 0.00432142 0.0066376226 0.032288145 0.0033799454 0.016176516 -0.009780589 -0.004484347 0.011616659 0.0032645445 -0.009556689 0.020415304 0.015409292 -0.018819295 -0.012760967 -0.0022658026 0.015822098 0.018129285 0.0062755924 0.016551089 0.0077328705 0.01804674 0.003162107 0.016320886 0.0012164582 -0.010395366 0.006348505 -0.003015193 -0.012903894 0.01098728 -0.0034886813 0.0005493633 -0.0058251116 0.0007916267 0.0073450413 0.0058441022 -0.0029387926 0.010766402 0.004343026 -0.028994123 -0.016515275 0.0012470017 -0.013585933 0.0016351144 0.0057392176 -0.013761193 0.02082137 -0.0028423048 0.0010685399 0.021534966 0.03492171 0.02084211 0.0032529847 0.02917694 -0.0047979928 0.014830626 0.019990003 -0.0134821115 -0.023715617 -0.009796206 0.004849679 0.03080471 0.00968022 -0.012692159 -0.014706931 -0.0010013018 -0.01174878 -0.018054646 -0.0020233297 0.00885914 0.012240779 0.012703861 -0.011173128 0.01036018 0.0012560233 -0.005081553 -0.02600048 0.011139026 -1.5634839e-06 0.0010983492 0.0075239097 -0.011041033 -0.006507543 0.021572167 0.016302843 0.0014976658 0.008888845 -0.00023722247 -1.0886028e-05 0.0035690067 -0.0044138865 0.008121334 -0.0070328168 -0.010395028 0.008703504
y 0.010601482 -0.020071372 0.03138689 0.0007321966 -0.009747466 -0.02613901 -0.0048995074 0.018334886 0.0009371243 -0.009969779 0.021658724 -0.013099762 -0.005422977 -0.0015852608 0.009448565 -0.000817131 0.001899123 0.014608423 -0.005999842 -0.0033690417 0.02444603 0.020757744 0.007939029 -0.0181633 -0.0061142095 -0.005216232 -0.019424818 0.012866552 0.012476897 -0.0038266117 -0.026970811 0.0075566475 0.011647689 0.0006520827 0.0017400192 0.003998292 0.03228639 0.005805727 0.013389089 -0.007222695 -0.009466496 0.013825754 -0.00055287353 -0.011715749 0.018359724 0.0027641493 -0.014176496 -0.013866325 0.003907994 0.015388933 0.013544224 0.005314774 0.005126165 0.007552085 0.01671222 0.011985184 0.028604167 -0.0023332941 -0.013807853 0.006719018 -0.00060900825 -0.012894039 0.0031880348 -0.013626056 0.008319462 -0.0011218286 0.0022808085 0.0019796889 0.008485523 -7.162914e-05 0.0124972435 0.0063544847 -0.03125806 -0.017908936 0.0050482075 -0.024191828 0.0016010688 0.009334619 -0.006753111 0.019938264 -0.010055995 -0.010042364 0.025262153 0.031654213 0.020246072 0.009720704 0.025854915 -0.014232871 0.01138582 0.029024616 -0.01754207 -0.014272321 -0.009189136 0.006221739 0.02719864 0.008808233 -0.016418543 -0.025229577 -0.009605288 -0.0062385243 -0.024942528 0.009353967 -0.00064492173 0.0012382537 0.007115124 -0.010451979 -0.0015309221 -0.009398438 -0.010428393 -0.017443975 0.0076246276 -0.0039753676 -0.002591691 0.014408904 -0.011612377 -0.004225355 0.011117296 0.019885087 0.0054300185 0.008068564 -0.006432157 -0.014374251 -0.0014498321 -0.002719682 0.003815674 0.003149791 -0.020716926 0.012367933
niño 0.008730406 -0.015094516 0.010969672 0.013634176 0.0032623592 -0.018123977 -0.0057179253 0.015708925 -0.0017002284 0.0007592461 0.00820834 -0.0151412785 -0.007475577 -0.012672856 0.0033180702 -0.00094812346 0.013280247 0.014885709 -0.0075930627 0.003666246 0.02020509 0.016446408 0.019049445 -0.0065896516 -0.0030712201 -0.0029223715 -0.015533028 0.012359272 0.010297968 -0.012337683 -0.022576507 0.008427117 0.006603858 0.0056768577 -0.009006654 0.00032790902 0.025897205 -0.0036858008 0.018998384 0.0030923488 -0.0079433555 0.0062790057 -0.0028069783 -0.016468769 0.0047236523 0.0060440516 -0.010900668 -0.002758232 -0.008111563 0.01292164 0.0048662196 -0.0046268804 0.015189705 0.016605727 0.0081238365 0.007954966 0.014771777 -0.012080565 -0.013767745 0.012423992 0.0043033934 -0.00051386683 0.011412656 -0.0002985592 0.0034137412 -0.007870017 0.006625032 0.0056997743 0.0058111907 0.00069054385 0.0061028115 0.009388319 -0.018158134 -0.014570773 -0.0017389577 -0.019883534 -0.007829686 0.012439553 -0.016403627 0.019329777 -0.013013073 -0.0035727932 0.013368781 0.015929261 0.019026706 0.008961572 0.020682953 -0.0030845085 0.008855704 0.024580682 -0.0040648608 -0.024288937 -0.0060591833 0.0011430634 0.021757564 -0.0011988529 -0.008315036 -0.022417052 -0.0013317843 -0.0029096124 -0.012290845 -0.00043422202 -0.0044865184 -0.00077771774 0.007768294 -0.017560817 -0.002626386 0.0009780787 0.0020253244 -0.0151670715 -0.0023207944 -0.0091604395 0.006267194 0.010422744 -0.009180773 -0.007959894 0.012505867 0.018241074 0.0070690894 0.003443851 -0.009484744 -0.0137488935 -0.0033076708 0.0020981862 0.004999488 1.4424276e-05 -0.010761609 0.008286505
con 0.0019170208 -0.005412707 0.008970336 0.011617234 0.0018090872 -0.00902805 0.005292424 0.015336326 -0.0035468277 -0.006248059 0.013134545 -0.014199593 -0.0011019452 -0.00948088 0.013044775 -0.0017295532 0.0057106065 8.948314e-05 -0.012287682 -0.006925503 0.0063725547 0.016664179 0.0048568295 -0.01481615 -0.008190037 -0.0032203565 -0.00479831 0.017065478 0.010513127 -0.0010589088 -0.022735208 0.006891737 -0.0036993665 -0.0010480647 -0.00856065 0.00398608 0.020882998 0.005554229 0.014140277 -0.009278858 -0.00088112877 0.0024182072 0.0049122195 -0.008376055 0.0069930125 0.0027987943 -0.011532394 -0.010193449 0.0049405163 0.0058408375 0.015140009 -0.006386722 0.0092431335 0.0076892544 0.015578104 -0.002389518 0.023183659 -0.0088222725 -0.01311474 0.002056049 -0.0033454646 -0.0097132055 0.002772862 -0.011031205 0.0026988843 -0.0007472861 0.0014376206 0.008405457 -0.00516868 -0.0031277086 0.011624295 0.009744995 -0.024969814 -0.007485411 0.00583119 -0.014930891 0.0053036497 -0.0021541175 -0.0029283715 0.01511406 -0.004232658 -0.007159892 0.009904686 0.017974984 0.012229004 0.0046081445 0.022262758 0.001636218 0.014839132 0.01227512 -0.0009285334 -0.015428091 0.0015733793 0.0038019947 0.016793841 0.0048535876 -0.012640278 -0.019217592 -0.009076065 -0.00432132 -0.009443476 0.0025048926 0.0029626826 0.008297733 0.013903796 -0.016775584 0.004199141 -0.00916705 -0.0003776461 -0.007632412 0.009253143 0.00079942885 0.0062353234 0.011685278 0.0008000089 0.0048763696 0.006815825 0.021359269 0.008870272 -0.0008904304 0.0020684286 -0.0014047981 0.00941551 0.003944675 0.008929823 -0.0021078712 -0.0038612057 0.006666833
un 0.0077012074 -0.014280927 0.026985185 0.013113255 -0.0054095197 -0.018614965 0.002557246 0.0054982547 0.0020184678 -0.01463302 0.011741707 -0.006663009 -0.0056848475 -0.010091092 0.010777231 0.009356116 0.0015815868 0.0045938115 -0.010083578 -0.0038935028 0.017634198 0.029319977 0.018899338 -0.014338332 -0.003504753 0.006784588 -0.006437278 0.022079464 0.009482778 -0.014798099 -0.026972575 -0.0030726106 0.009848632 -0.0006874285 -0.009997913 0.0070495396 0.032035336 -0.002620676 0.022627363 -0.0055096196 -0.011977974 0.009052782 -0.0025480574 -0.016865807 0.015813129 0.012958353 -0.005129509 -0.0142101245 -0.005034138 0.0061402423 0.018046366 0.0070741153 0.0066832127 0.013123326 0.008175763 0.0062853494 0.0304376 -0.008165038 -0.015102956 0.0025121074 -0.0031890294 -0.010135306 0.009727155 0.0009957515 -7.1323026e-05 0.0012908784 0.011279229 0.008570244 0.0016757294 0.0072805444 0.017660348 0.010007473 -0.0275319 -0.009566547 0.0068472615 -0.008385596 -0.0037025495 0.009344007 -0.005972639 0.011371908 -0.0015881239 -0.0019038527 0.024863891 0.024972208 0.012095765 0.00895942 0.014754104 -0.014053652 0.0052218703 0.020045388 -0.013529413 -0.0142382085 0.004424303 0.0017291718 0.024208622 0.0041938564 -0.012656033 -0.02540346 0.0018899097 -0.011522805 -0.015520065 0.0094637815 0.004755614 0.010052913 0.012935969 -0.016074838 0.006384197 -0.0040013995 0.00012354484 -0.015587921 0.0059659034 -0.0009011975 -0.007464006 0.013691571 0.0009869168 -0.00610677 0.0158342 0.0142845735 0.007167223 0.003519782 0.00050633244 -0.0065844646 0.0046594725 0.0031717154 0.008097699 -0.008660553 -0.019518258 0.0022129505
juega 0.00021737885 -0.004822825 0.010399326 0.0034527748 -0.00954622 -0.009408861 -0.0025317844 0.0018673516 -0.001156274 0.0019883604 0.010721848 -0.011741261 -0.00577914 -0.005011381 -0.0012555714 0.008249199 -0.00040756786 0.0037631027 -0.0071440437 -0.004950703 0.014153013 0.024492225 0.014490022 -0.005074814 -0.00477542 0.0005845145 -0.012914315 0.0068069054 0.0064591556 -0.0053419336 -0.026220083 -0.0026854253 -0.00406181 -0.0034990716 0.0006591647 0.0075558564 0.023261571 0.0019108378 0.01856035 -0.004670785 -0.008329437 0.00056598114 -0.0023107356 -0.013175824 0.010806072 0.01243683 -0.013791152 -0.008736515 -0.007923375 0.005368351 0.0067546787 0.0030582508 0.010516497 0.005019672 0.006507796 0.0058981525 0.022278477 -0.0006630661 -0.011091003 0.00322343 -0.005142516 -0.0077517754 0.007019026 -0.004100272 0.008123856 -0.0023203737 0.0028737655 0.0012121778 -7.752415e-06 -0.0067637074 0.0071349265 0.0041928813 -0.024746595 -0.0067666285 -0.005485795 -0.019975016 -0.008249168 0.011054615 -0.004557027 0.018629642 -0.0033161447 -0.0024386642 0.011836658 0.0285767 0.013502411 0.00661903 0.016060466 -0.0056377165 0.0133189885 0.015466506 -0.006203935 -0.01598243 0.0016585102 0.004818457 0.019972585 -0.0021421155 -0.012542649 -0.011844147 -0.007874556 -0.0062919017 -0.015624126 0.004544527 -0.0046567693 0.012867458 0.006656051 -0.015202773 0.0056630257 -0.005118203 -0.009567825 -0.019235441 0.0031371438 -0.011436128 0.00051726523 0.008663888 -0.0072539337 -7.174285e-05 0.013026933 0.022326477 0.0061937827 0.0024671666 -0.002543727 -0.0073071895 -0.0048797033 0.008147696 -0.00030167087 -0.010764116 -0.016520059 0.0009191898
niña 0.004945388 -0.0038609307 0.019735321 -0.00027661177 -0.0021914796 -0.013987532 -0.00445072 0.013402383 -0.0008107859 -0.0069072316 0.004904471 -0.010459674 -0.0076358574 0.0021851386 0.0106348 -0.0052684774 -0.0027518019 0.012451631 -0.0062839217 -0.0036465267 0.015919458 0.0102426885 0.013436876 -0.010379351 -0.009197588 -0.00030355563 -0.004465025 0.019359583 0.005027968 -0.0020635212 -0.020474995 0.00057546736 -0.0008926133 0.0016579677 -0.0035338104 -0.0022944596 0.012210411 0.0077405344 0.013088244 -0.0052855625 -0.009564993 0.01260389 -0.007172128 -0.0072247563 0.009837567 0.012543048 -0.002131549 -0.007277278 -0.00031936655 0.0058664074 0.0007971025 -0.00059757073 0.008087873 0.012999179 0.016680822 0.011561222 0.009521387 0.0009838451 -0.012173398 0.005105268 -0.00038173373 -0.0011705337 0.008351472 -0.00093624764 0.009449657 9.3771865e-05 -0.0023937775 -8.038532e-05 0.0058911676 -0.004603107 0.004607633 0.0060197865 -0.017652823 -0.016644336 -0.00028216897 -0.009908983 0.00016902114 0.00945415 -0.011941216 0.012338655 0.0010722978 -0.0009518676 0.016566716 0.015052932 0.014978274 -0.0029542628 0.017856501 -0.013054729 0.004917489 0.0068335193 -0.009090214 -0.017755328 -0.005350163 0.002683728 0.017970068 0.0006003911 -0.014175794 -0.017965952 -0.0023105415 -0.00862404 -0.020702377 0.0010741362 0.006900261 0.010038625 -0.00081240013 -0.0071737845 -0.0025519363 -0.010500779 -0.002816952 -0.014121762 -0.0023170046 -0.008792678 -0.0020574657 0.011533586 -0.01012706 0.004291026 0.009487237 0.013621269 0.011898638 0.0046721855 -0.006786002 -0.0019211946 0.0046534436 0.0064962166 0.0011915335 -0.0061348984 -0.008930889 -0.00064530945
del 0.0029046058 -0.0032039986 0.017526198 0.011770023 -0.008317051 -0.014976857 0.0048074783 0.00801719 -0.008777126 -0.0034758488 0.012501539 -0.0076985774 -0.010449061 0.0004009389 0.012929932 -0.004467895 0.0040882668 0.003973758 -0.00893572 -0.001633017 0.0058530155 0.020737011 0.004092577 -0.0060161264 -0.0035235414 0.0035867319 -0.0065308297 0.018893743 0.0034324662 -0.009727003 -0.015844582 0.0025827626 0.00041439084 -0.005388415 -0.0064478284 -0.0047775875 0.020861715 0.0032848543 0.016024115 0.002049794 -0.01064874 0.007883838 0.004959788 -0.0074484255 0.0108044995 0.009870254 -0.013503651 0.0026924587 0.0032989928 0.013123977 0.0010388104 0.005980309 0.011633632 0.0059422245 0.0028175171 0.0081002945 0.008953236 -0.008041078 -0.003969514 0.011331825 0.006373508 -0.0092692375 -0.0028835183 0.0032333934 0.006722288 -0.0033530188 -0.0045050625 0.00073180645 -0.0024723504 -0.00295543 0.0070072617 0.0022120648 -0.016522286 -0.015403182 0.008811923 -0.013214341 -0.0070828083 0.010312094 -0.005190886 0.015673695 -0.007701609 -0.008039402 0.011620674 0.015919479 0.0015965983 0.0013249391 0.015901105 -0.00014125474 0.011655485 0.015264744 -0.010630122 -0.0135259405 -0.00495976 0.005994473 0.00919634 0.0034136942 -0.008018585 -0.016485201 -0.008053021 -0.0004917379 -0.018442005 0.00074826414 0.0037117156 0.010747753 0.00026821406 -0.006139501 0.009700822 -0.008136179 -0.005622093 -0.0084138075 0.0070277993 -0.0022038962 0.006125654 0.0059505943 -0.0021836532 -0.0030231003 0.0023583067 0.014038994 0.005417272 -0.00609402 -0.0041391156 -0.004235325 0.0015358924 0.008241024 -0.0009929485 -0.007259625 -0.003189847 -0.0024946486
duerme -0.0058287056 -0.0066218083 0.0031473136 0.0035370665 -0.00022051844 -0.009708856 -0.0054262667 0.0047366596 -0.0035043727 -0.0003043282 0.013973604 0.0005281861 0.0019224469 -0.009523912 0.01132822 -0.0009881122 0.00998263 0.006198398 0.00013066057 -0.008188036 -0.00012563533 0.016815161 0.0038556026 -0.004433832 0.0026339262 -0.00017157765 0.0015365776 0.0069373213 -0.0055005965 -0.009576182 -0.011551408 -0.00619848 0.008056595 0.0035262248 -0.008157279 0.007126098 0.018464338 0.0045568165 0.012200276 -0.009637158 -0.003742646 -0.003147154 -0.003986161 -0.0060256836 0.0057774307 0.0047889003 -0.0022190518 -0.0016028959 0.0026361218 0.010634394 0.00084038347 0.00700158 0.009297123 0.012705698 0.009214792 0.00018082424 0.007220102 -0.003254933 -0.0063060513 0.011632999 0.00043455098 -0.00096641504 0.005842665 -0.0099549815 0.006487062 0.0064011314 0.00027715668 0.0051358435 -0.00456151 -0.00522249 0.011043143 -0.00074411783 -0.0049864296 -0.0067681163 -0.0005253476 -0.0046216547 -0.004205322 0.0015646319 -0.0040560244 0.010128855 -0.004215337 -0.001360657 0.0017337519 0.019837148 -0.00046565416 0.007421061 0.012816355 -0.009304039 0.000329881 0.0027698628 -0.009175609 -0.0031820566 0.006116802 0.0028877193 0.010919193 0.008781538 -0.008785492 -0.009717375 0.00075932726 -0.008658323 -0.016161295 -0.0062604686 0.008103818 0.0076426 0.0006241699 -0.01288869 0.002571635 0.00032368634 -0.002953241 -0.007988314 -0.0013886546 0.0012617019 0.0010801918 0.010734113 -0.010672271 -0.0053495103 -0.0007619482 0.008014401 -0.0033532158 0.004386176 -0.007778398 -0.007780141 0.0049872366 -0.005411638 0.001950854 -0.0073043373 0.001192766 0.009325157
se 0.0034627337 -0.0042152093 0.020714268 0.0011314676 0.0045917546 -0.021313788 0.006029826 0.01098056 -0.007042132 -0.0079662455 0.020483049 -0.011545973 -0.0017226156 -0.009311873 0.013362502 0.0013097323 0.011791731 0.0048989346 7.561187e-05 0.006240222 0.014412883 0.018242093 0.015079353 -0.005172887 0.0025387956 0.0069711874 -0.004847877 0.020244649 0.010337698 -0.00698617 -0.019519396 0.0023284312 0.0038284897 0.001655159 -0.009493443 -0.0071016517 0.018207977 0.007138685 0.008994917 -0.009452576 -0.0035998889 0.0079820985 -0.0005507441 -0.008108144 0.013485745 0.011159998 -0.007453446 -0.0049074814 0.0045685405 0.010421232 0.0058269696 0.00648784 0.011915617 0.011291073 0.007141831 0.007476865 0.022859823 0.0006773224 -0.0076676467 -0.00011828116 -0.0004694742 -0.0069176583 0.008650556 -0.013007354 0.009750821 -0.005776966 0.0072132745 -0.0018548694 0.008701202 0.005395957 0.009237275 0.00048210454 -0.017963681 -0.013449305 -0.0030520395 -0.007524606 0.0002008018 0.008254601 -0.014895018 0.017716257 -0.0051648025 -0.0034417661 0.006514789 0.024471741 0.016575184 0.009170129 0.0116591165 -0.012723554 0.003332394 0.015265903 -0.015835961 -0.02171796 -0.0038951442 0.0027449508 0.010432372 -0.00067341805 -0.0077185305 -0.009649436 -0.0015491545 -0.0068622204 -0.020899367 -0.0037690233 0.0015184953 0.011884241 0.011865562 -0.012350122 0.0037509084 -0.010805236 -0.0046686516 -0.019406488 0.0081709465 -0.006117315 -0.0040241904 -0.0008984134 -0.0056544943 -0.007895469 0.010112842 0.011262573 0.0029853187 -0.0018408381 -0.011225169 -0.006277477 0.0031462845 -0.0014011882 -0.0048779068 -0.0060037426 -0.018565496 0.003364165
lago 0.006899924 -0.011921938 0.020737838 0.010091451 0.0034810842 -0.010147934 0.007174957 0.0017013354 -0.011051878 -0.011085739 0.008436454 -0.013894783 -0.015146057 -0.0072142095 0.008367543 -0.0004883564 -0.0011044885 0.0118999025 -0.0044452287 0.0028160857 0.019316599 0.024374368 0.010973682 -0.009243122 -0.008636827 0.0017469169 -0.007889143 0.022679256 0.0016170532 -0.0052288077 -0.024746513 -0.0005051403 0.010581202 -0.002103565 -0.0036685518 -0.00642833 0.014087235 0.0070883296 0.00845239 -0.00022489716 -0.013217418 0.0060133715 -0.008448339 -0.006070567 0.016186874 0.011210474 -0.002266745 -0.0067385696 -0.010092062 0.015821017 0.006463239 0.0077127055 0.012907033 0.0086378865 0.004757708 0.004050093 0.024315512 -0.010655817 -0.008157449 0.0005421951 0.0062974733 -0.010232785 0.013233098 -0.010315696 -0.005338897 -0.0070328657 -0.00021056533 0.009783181 0.0006516756 0.006782306 0.011181767 0.006257458 -0.01690552 -0.008158258 2.2994118e-06 -0.0072356765 -0.009296655 0.008035975 -0.010090321 0.012535971 -0.0004120572 -0.0056757955 0.012926733 0.022746254 0.011905549 0.0006628229 0.02326893 -0.012325138 0.0148126315 0.017345674 -0.007832371 -0.01393136 -0.002727596 0.0034361684 0.016988326 0.0059813606 -0.009173707 -0.018751796 -0.010218896 -0.014679718 -0.015887368 -0.0026175051 0.0011506017 0.0030203897 0.0013820858 -0.010947979 0.007382593 -0.005367864 -0.009366618 -0.014383297 0.003634637 -0.0089638885 -0.0011162482 0.006599253 -0.007613169 -0.0102947 0.018153403 0.01844843 0.0031916283 0.0068043936 -0.0046359114 -0.00036322276 0.00086545583 0.00772268 0.0012179696 -0.008327384 -0.016107783 0.011861884
de 0.002991719 -0.009801604 0.026753647 0.0016881151 -0.004922805 -0.022363232 -0.0058420138 0.0034646257 -0.0022096818 -0.003915676 0.020093067 -0.00644777 -0.007868925 -0.0007260874 0.0062157474 0.0043563973 0.013261794 0.008893511 -0.00052510755 -0.006420073 0.019910732 0.023675332 0.016895704 -0.02154295 -0.0052528232 0.0028155893 -0.016874274 0.010873402 0.0092699025 -0.013649513 -0.025979541 0.007634374 -0.0009377664 0.008126286 -0.0023949642 0.0041539087 0.021043845 -0.004232247 0.0067262435 -0.005045861 -0.012641629 0.0059259892 0.0039967047 -0.01904056 0.007724577 0.003493768 -0.015101596 -0.013536011 -0.0039401883 0.017084537 0.01753999 -0.002580607 0.002729574 0.0086741755 0.003988566 0.0018317774 0.01630894 -0.0033076003 -0.015949534 0.008799106 0.00088188954 -0.0042005866 0.004877783 -0.014066465 0.006669475 -0.004804085 0.007009056 0.008048676 0.0080983145 0.0007377328 0.008182897 0.008647432 -0.026356138 -0.022886192 0.0053105415 -0.016318379 -0.0053226035 0.0047385544 -0.018453358 0.01299019 -0.0074189 -0.0062892805 0.018112065 0.028894128 0.018255472 -0.0022465969 0.015788503 -0.0146476235 0.0019900887 0.015418401 -0.011827551 -0.024371527 -0.007241182 0.00043926784 0.026108062 0.0039876457 -0.0031204468 -0.0243449 -0.0073141814 -0.008024136 -0.010601265 0.0027781955 0.0035328614 0.008128716 0.01141512 -0.020618757 0.0056864405 0.0001580168 7.6718046e-05 -0.015031861 -0.002297702 -0.008128949 0.0063662375 0.007021835 -0.013100739 0.0012831377 0.008439116 0.022327526 0.009803777 -0.0032069492 -0.0035668104 -0.0020159285 -0.00086663803 0.0010356732 0.008588527 0.0038985624 -0.020806318 0.01075933
grande 0.009546315 -0.009919893 0.016539956 0.0025245468 0.0041392273 -0.01176092 0.004111611 0.014857421 -0.00067686196 -0.0102082845 0.009929937 -0.005348188 -0.005525688 -0.0013420361 0.013206663 0.0049154265 0.012573784 -0.00037673092 -0.008567618 0.0008965218 0.01375222 0.013800166 0.003817296 -0.012617305 -0.010424971 0.0074372725 -0.006157155 0.00559357 0.0057276455 -0.0027500377 -0.0204046 -0.003774418 0.00408562 0.008013043 -0.009605273 0.0006647904 0.011766064 -0.0005546634 0.012627252 -0.007184603 -0.008299022 0.006857032 -0.0067842198 -0.0037949255 0.012578797 -0.0010740994 -0.0090259295 -0.0024493528 -0.008746782 0.0014264385 0.0014570407 -0.0029744762 0.01382335 0.01311327 0.010827383 -0.0025190953 0.019987695 -0.00045520597 -0.007220461 -0.001466098 -0.0022064385 -0.006220945 -0.0015559731 -0.0025970207 0.0022953541 -0.0056681368 -0.0040733656 0.0096729295 -0.0057545807 -0.0047887904 0.011269971 0.0021849736 -0.01776819 -0.015898269 0.00071172696 -0.0062456257 -0.00603448 0.00055117736 -0.011592803 0.0059585753 -0.010901132 -0.010424375 0.017782344 0.024680324 0.0064397086 -0.004660201 0.013099426 -0.008543641 0.01392132 0.015982632 -0.012461711 -0.015948085 -0.009957179 0.0032442322 0.012335422 -0.00033457697 -0.0033735095 -0.0068859984 0.0007635973 -0.010840967 -0.007705772 -0.006088886 -0.003957555 -0.0012091362 0.0049268785 -0.009031057 -0.0005916153 -0.0016657729 0.0042856056 -0.0082738595 0.0021430594 0.0035794124 0.0010774406 0.004107064 -0.00933302 0.0033367737 0.0025331497 0.010940311 0.010343237 -0.0012839343 -0.002739336 -0.010378737 0.0056060073 0.007329554 -0.0063223015 -0.005064635 -0.0034108816 0.0058957716
su 0.0017245504 -0.0070313113 0.006070579 0.012477648 -0.0041034473 -0.014975342 0.00183217 0.008192966 -0.008261423 0.00019258904 0.008901137 -0.010698219 -0.0010887788 0.0013904364 0.012417566 0.002325374 0.0047264597 -0.00013287184 -0.00045826615 0.006789301 0.010048553 0.012593328 0.0059828283 -0.009795164 -0.009542019 0.0046273614 -0.0076780994 0.01863013 -0.0017875582 -0.00974774 -0.020512896 -0.00469887 0.005313591 0.0046357014 -0.00092570565 0.0034689615 0.009179595 -0.00063955085 0.003929397 -0.0007830054 -0.008026898 0.01312646 -0.0044321488 -0.003794682 0.012008055 0.0066284915 -0.006962193 0.0017059417 -0.00022404864 0.013164107 0.010302028 0.005470557 0.010567074 0.0013653246 0.0037843932 0.005077548 0.015045057 -0.0023910291 -0.0062818527 0.011247663 -0.0040495587 -0.005905874 0.0100232065 -0.0025895005 0.0051762178 0.0032769265 0.0014331049 -0.0018330006 0.0031155148 -0.0074628177 0.004533049 -0.0048141424 -0.0151149165 -0.017403813 0.0073017715 -0.01387145 0.006482851 -0.002747111 -0.010675945 0.010929401 -0.0068317656 -0.0015842293 0.008423582 0.01684141 0.0048810933 -0.00507594 0.018977938 -0.0048913574 0.011885935 0.0073065935 -0.0044096517 -0.020530367 0.004110666 0.006234829 0.010016079 0.008150498 -0.011645186 -0.01918722 -0.0013859533 -0.002646406 -0.01887677 -0.005438208 0.008781754 0.0062189405 0.0070685134 -0.0071610375 -0.0005093091 -0.0016003888 -0.0013677524 -0.00518264 -0.0015455976 -0.0017125569 0.004885376 0.00025570494 -0.010943057 0.005029217 0.014650448 0.008887039 0.0087682875 0.0014026911 -0.0078079402 -0.0056425133 -0.002288019 0.006330624 0.0024772168 -0.009155595 -0.009462777 0.0012003599
alto 0.0067266533 -0.008537755 0.020520495 0.00663405 -0.0053615924 -0.0048859105 0.0019625516 0.004164222 -0.0079475595 -0.007178653 0.007235198 -0.0033694513 -0.014373868 -0.008419665 0.008513797 0.0016210431 0.009404962 0.00353537 -0.003953192 0.0012659668 0.014929675 0.016005648 0.016913803 -0.0069190394 -0.009392128 -0.0008961448 -0.01565898 0.0074942587 0.0014691987 -0.013720674 -0.008704789 0.002704154 0.0024286064 -0.0034602475 -0.0085415365 -0.0070869224 0.02416778 -0.0019930855 0.013702503 -0.0067938673 0.0018250311 0.00907206 -0.0009116798 -0.012662371 0.010155663 0.003549461 -0.0014660796 -0.0013798159 -0.0012804578 0.00967905 0.011047764 -0.0038755431 0.013885825 0.009007811 0.0036547992 0.011058883 0.014202252 0.002662018 -0.008546876 0.011108665 0.0014869703 -0.00968504 0.0018879912 0.0026005825 0.002917174 -0.0047104163 0.0025933485 0.0033782495 0.0019725035 -0.0065535908 0.012887647 0.0033001802 -0.009177383 -0.008342391 -0.001784632 -0.007300678 -0.0018888848 -0.0034479667 -0.0012472199 0.017015792 0.0031844 -0.0057850108 0.0050795125 0.02213894 0.0037316056 0.009239861 0.016747165 -0.0009912534 0.01165406 0.014033533 -0.009384157 -0.012630226 0.005653862 -0.004084715 0.01432916 -3.614649e-05 -0.0034338825 -0.0075935684 -0.0059834593 -0.002589365 -0.016217573 0.0039670398 0.00813423 0.00817906 0.003208465 -0.0117391795 0.008570632 0.0046929806 0.0017837185 -0.015818318 0.0016348821 -0.008664146 -0.0034750144 0.008099554 -0.009319685 -0.007042044 0.016056262 0.019588893 0.010514369 0.001864844 -0.011044936 -0.010535783 0.0029630086 -0.006134554 -0.0048563224 -0.00096897106 -0.012091136 -0.0037522432
nido 0.006406874 -0.013927552 0.006989228 0.0031493886 -0.00086881313 -0.01117094 -0.0043611876 0.011805971 0.0036743695 -0.010205782 0.018083358 0.0005981777 -0.012384619 -0.0049944245 0.008372927 0.00693824 0.0012466576 8.312069e-05 0.00020027062 -0.007844955 0.004948646 0.012062036 0.012745825 -0.013445468 0.00054181874 -0.00022597545 -0.0061206785 0.015605012 0.0040196963 0.0005958737 -0.014474374 -0.0057866713 0.0102592455 -0.0030580754 0.0019928007 -0.002326246 0.009450323 -0.0051339627 0.012864154 -0.0035053317 -0.0042974395 -0.0014359101 -0.0055904486 -0.013491121 0.01504258 -0.0018891322 -0.002430852 -0.005005321 -0.0017813811 0.013398909 0.0043136026 -0.0042073485 0.0066298475 0.013057903 0.014934359 0.00072049024 0.015817365 0.00040651043 -0.0108991 0.010370883 -0.005682833 -0.003997126 0.007948734 -0.0006100686 -0.0021330996 0.0022132546 0.008052967 0.011341753 -0.006996473 0.004108818 0.010330402 0.00096204085 -0.006372288 -0.0138622355 -1.808511e-05 -0.014745948 -0.004256168 0.004119739 -0.009286862 0.004280559 0.0012298013 -0.006539816 0.005459949 0.022556596 0.016424162 0.0055605937 0.013127609 -0.004303836 0.005317727 0.017865514 -0.011846884 -0.011433139 0.0016567818 -0.00019031641 0.0146931065 0.0045891274 0.0011401526 -0.0097249895 0.0052077267 -0.009504405 -0.007786677 -0.0015220565 -0.001881923 0.00561972 0.002652678 -0.012845673 0.004527333 0.0040825405 -0.007825406 -0.01920739 3.9310016e-05 0.0027490181 -0.00796353 0.012638981 -0.0040741176 5.7218953e-05 0.0073602716 0.006244866 0.006129233 0.005628773 -0.009334207 -0.0051710056 0.0028032537 0.00447917 0.006653672 -0.0053160964 -0.0029451863 -0.0013160697
baña -0.00013564962 0.0009748544 0.016386291 -0.0025751456 -0.0034918438 -0.016670132 -0.0014826887 0.010685966 -0.009194045 0.00065764895 0.014158696 -0.007998241 -0.013484553 -0.00531276 0.002712061 0.0041568014 0.010825498 0.0068584606 -0.005072351 0.0018298917 0.0035625028 0.011121416 0.0066846157 -0.0004834824 -0.0075190593 -0.005362628 -0.00559696 0.011927894 -0.0030564775 -0.009590205 -0.01426243 -0.0018079161 -0.004343063 -0.0024387962 -0.004241637 0.0056332755 0.015001455 0.001343374 0.00869871 -0.0053704153 -0.0028317487 0.0057779197 0.0033009497 -0.008411654 0.00043467144 0.0054838923 0.0019565553 -0.008075181 -0.00597851 0.0037219906 0.013542993 0.00032841845 0.01295501 -0.00033084667 0.01407788 -0.004234732 0.019991891 -0.0020618066 -0.0039180345 -0.0001862108 0.0062717926 -0.0005162606 -0.00049355574 -0.011332006 0.0070291134 -0.004595833 -0.005352426 0.005997238 -0.0032999103 -0.006128358 0.013337742 0.000937192 -0.013766489 -0.012867954 -0.0021829468 -0.01219555 -0.005629272 -0.00044111424 -0.01272832 0.015371959 0.001169987 -0.0050572925 0.01177576 0.00904823 0.013850987 0.008880993 0.012572028 -0.010122247 0.0032505523 0.015074832 -0.008820872 -0.008304249 0.005799095 0.004827757 0.0086214505 0.0058529517 -0.008322385 -0.015719159 0.0034419477 -0.011806464 -0.011478659 0.00011400849 -0.0052127102 0.0032477945 0.009776567 -0.012012255 -0.0037134427 0.002621919 -0.0051973397 -0.017371505 0.0028315661 -0.0031426197 0.005820084 0.005044662 0.0030060753 -0.009338761 0.011208569 0.015135503 0.0042451173 -0.0016458957 -0.0024277624 -0.004533382 -0.0050048963 -0.00408396 0.0017523454 -0.0038841537 -0.000658312 0.0020674644
ladra 0.0056786938 -0.0025261464 0.0138959475 -0.004759043 0.00056035456 -0.007269463 0.0013545224 0.0036061832 -0.0072836936 0.0046081385 0.0037289513 -0.0014163628 -0.009037061 0.001012951 0.010853376 -0.00010353786 0.00756801 0.003407018 0.0042294418 0.0073552495 0.0052279094 0.0062041315 -0.0027602157 0.0025719942 -0.0038710888 0.0017982346 -0.0061520264 0.012754241 0.008361444 -0.0020969035 -0.006034402 0.0056972937 0.003741589 0.005501911 -0.0007445509 -0.0012323348 0.012968979 -0.0026915432 0.0031026339 0.005184211 -0.01031807 0.00066766597 -0.0033319485 -0.000659695 0.011242405 -0.0021491318 0.0006830034 -0.0027821492 -0.008320072 0.0018030705 0.0030500684 -0.0028052286 0.0030063053 -7.575082e-05 0.009222595 0.009618161 0.0067046247 0.0006244319 -0.0044442657 0.0022810707 -0.005827723 -0.0020633077 0.005625128 0.0031494605 0.0059430236 0.003074097 0.005086074 -0.0032111362 -0.0007366315 -0.004714187 0.009090962 0.007387358 -0.011340998 -0.0053746514 0.0049320227 -0.003792676 -0.00028693015 -0.0029968054 0.0038720593 -0.00069794455 -0.007219864 -0.0059208954 0.0011643079 0.00679267 -0.0021436831 0.0021389886 0.004701032 -0.0048635853 0.008185423 0.010192136 -0.0026782274 -0.007979935 0.0069124917 0.0011818055 0.012094233 0.008226151 -0.011512741 -0.013846822 0.0066995258 -0.0008025552 -0.008315537 0.00449405 -0.002565736 -0.002447529 -0.0030469736 0.00094818126 -0.0006207942 -0.0075664353 -0.0063174376 -0.0021073224 -0.0004910111 -0.0066299243 -0.0013797673 0.001650855 -0.0048225736 -0.0028607312 0.008405497 0.0074528838 -0.0005533415 0.00272931 0.0020930665 -0.009762384 -0.005180553 0.0056853336 -0.0065835044 -0.0011325484 -0.012185928 0.008359658
canta -0.0016847022 -0.01379913 0.015107427 0.004817228 0.0032109541 -0.005560878 -0.0007041842 0.010216759 -0.0002708226 -0.0052166847 0.008051634 -0.007214796 -0.006230384 0.0020904336 0.0037732518 -0.0060320776 0.0094835395 0.014853988 -0.009875711 -0.0010855579 0.008028236 0.021467753 0.017766029 -0.011182046 -0.00012907902 0.0053601363 -0.0068322816 0.0067404006 0.0061443504 -0.00806422 -0.019629441 0.0055441246 0.0026517655 0.008598533 -0.0025661415 0.0010155992 0.017413976 -0.00667764 0.0036772634 0.00022818777 -0.011838114 0.009228402 0.00025656336 -0.01611267 0.007832544 0.0017971381 -0.014759473 -0.005558893 0.0053788843 0.0026110734 0.0056948974 0.008129242 0.0150359925 0.016227458 0.0014944514 0.0086723855 0.011790863 0.0011754439 -0.003466947 0.0035751318 0.004784239 -0.0133028105 0.008958048 -0.0015443913 0.006485127 0.004613499 0.00060015253 0.008638802 -0.0039893603 -0.005638095 0.010073417 -0.0049059363 -0.01743206 -0.012309805 0.008119901 -0.01690433 -0.0034707347 0.001532663 -0.012586643 0.010268105 -0.0012813108 -0.0071321386 0.011751069 0.027292877 0.009927865 7.286366e-05 0.022138149 -0.0050743367 0.0075249397 0.022768175 -0.0023517057 -0.012055362 0.0003398901 -0.00012267685 0.023735896 0.006000949 -0.012381887 -0.018923542 -0.0035161802 -0.012272269 -0.011576629 -0.005548519 0.0007093892 0.008454021 0.009934685 -0.00797031 -0.004378281 -0.0005426225 0.0011020033 -0.012133735 0.009569584 -0.0028902616 0.0048443465 0.013020421 -0.0055210213 -0.0027872087 0.012479676 0.007726548 0.009013409 -0.00308393 -0.007161693 -0.006576753 0.00843467 0.0032401206 0.0002973179 -0.0051373336 -0.012569758 0.0028068882
amigos -0.0026572484 -0.009109686 0.01104506 0.007101634 -0.0005386981 -0.0033399458 0.00022068144 0.0031732132 -0.008698999 0.001310775 0.013940603 -0.009414506 -0.001718243 0.004681578 -0.00066565286 -0.0013441587 -0.0036552658 0.0075697503 -0.0058017257 0.0011397887 0.015891852 0.004246675 -0.0005400379 -0.006051839 -0.009100758 -0.0071058865 -0.014392017 0.008620548 0.0018065815 -0.0039044474 -0.013234029 0.008020612 0.009532476 -0.0045288485 0.0053183027 -0.006571243 0.011702243 0.0020419424 0.007510441 -0.0054798652 -0.00415288 0.0056685954 -0.008850952 -0.010983522 0.0007152604 0.0073218443 -0.006041995 -0.00975527 0.002747423 0.005401359 0.008279308 0.005296079 0.0018322334 0.011939547 0.00045438277 0.00050189305 0.0057340953 -0.0023161322 -0.011380064 0.011284742 0.004070561 -0.010425973 0.008378942 0.0018422488 -0.0043887184 0.0035905198 -0.0042159725 0.011033545 0.00429123 -0.00050496886 -0.0019507033 0.0012920222 -0.011792649 -0.007991074 0.00802885 -0.010008457 -0.008013001 -0.0035526038 -0.006574537 0.0083676595 -0.0034601686 -0.003865125 0.015609126 0.0137488255 0.012676301 0.005221621 0.0053600594 -0.0059956484 -0.00089133694 0.0049986574 -0.0084308665 -0.0046167267 -0.002278805 0.008368736 0.009896282 -0.0027365736 -0.002569628 -0.008061281 -0.002341609 -0.0059860023 -0.014475399 0.0044460557 -0.004715416 -0.0033265408 -0.0022828896 -0.00039450877 0.0047324686 0.003146772 0.0055858837 -0.015753292 0.0054913242 -0.0005885456 0.0046886844 0.0017016142 0.004184656 -0.0058777328 0.012823957 0.014741909 0.0029163682 0.0048266244 0.0022198344 -0.0023413769 0.00701999 0.0029569038 -0.00045987335 0.003736949 -0.003670424 0.00013566586
caza 0.0021650728 -0.004314794 0.011826782 -0.0015562029 -0.004699332 -0.007057115 0.0028259929 -0.00099455 0.004201308 -0.0050005526 0.010776119 -0.0010001159 0.0014970535 -0.00563712 0.0006065917 0.0032031115 0.00035263694 0.008250024 -0.006975926 0.0016444756 0.0054117558 0.0075115324 0.007050324 -0.0071656485 -0.005398586 -0.006754435 -0.003108837 0.010674672 -0.0028994954 0.0039018062 -0.005602743 -0.0036074435 0.0007458086 0.003556258 -0.006626482 0.0020654737 0.013722673 0.0048516253 0.010030511 0.0011025171 -0.005456936 -0.001258997 0.0053959847 -0.010978074 0.003684156 0.00061580236 0.0012589681 -0.0075413142 0.0014624989 0.005464925 0.0012127677 -0.0057174335 -0.0026174085 0.0069503793 -0.002732297 0.0067589413 0.0061620376 -0.009407192 -0.008163446 0.009216039 -0.0017509222 0.0015440582 -0.0047683436 -0.009552672 -0.002965165 0.00073701463 -0.004243738 -0.0046609924 -0.0066112 -0.00058285845 0.009593166 -0.005188102 -0.012620032 -0.005298832 0.0034995086 -0.012417774 0.005494475 -0.004027529 -0.0004112874 0.012736136 0.0019752453 0.003431264 0.012913028 0.01279738 -0.00026935406 0.0061487113 0.0014817117 -0.007536479 0.008385473 0.0013690345 -0.008844091 -0.010054352 0.0015556877 0.0050772284 0.010106316 0.00490986 -0.0062137814 -0.0037408858 -0.0069819395 -0.004294537 -0.013246522 0.00096682867 0.0046398505 0.0066159843 -7.551921e-05 -0.0037688538 0.00739069 -0.00607407 -0.0044976254 -0.0078147715 -0.0021112962 0.004784627 0.005798302 0.010497713 0.0050306963 -0.007597425 0.00483596 0.0007534787 -0.001397537 -0.006508902 0.00039067672 -0.0025282514 -0.004406172 0.007068363 0.0012997688 -0.0012426723 -0.008128756 -0.0007314692
son -0.00055263436 -0.00091094564 0.015165352 0.000462819 0.0013308104 -0.009808212 -0.0023555337 0.0131102735 -0.006534901 0.0017116915 0.0069862125 -0.011536854 -0.009898793 -0.0065035424 0.004631203 -0.00026122018 0.008260139 0.0104037225 -0.005365323 0.002378597 0.008662392 0.013880192 0.007333706 -0.01098939 -0.0071532405 -0.0034062318 -0.00844658 0.0121353 -0.0044865957 -0.0006534253 -0.01605207 -0.0013237474 -0.0007759788 -0.0027378746 -0.005797838 -0.0072388886 0.015095712 -0.0060520135 0.005725477 -0.008911522 0.0021837607 0.004874214 -0.007877528 -0.0043947436 0.0017957482 0.003878644 -0.004357761 -0.01004195 -0.008863204 0.001180555 0.013210869 0.008472871 0.009338083 0.009019396 0.011227084 0.00070925645 0.021767382 0.0016813403 -0.003646294 0.012269164 -0.007106783 -0.0050711795 0.011290522 -0.004808769 -0.0034437075 -0.0019032073 1.3581507e-05 0.0024758019 -0.0007307366 0.005343459 0.0059215673 0.005880559 -0.017092839 -0.004108637 -0.0036025492 -0.017004916 -0.004468313 -0.0017131424 -0.010861874 0.009259775 -0.0022352352 -0.0010518418 0.014808962 0.015621638 0.010831236 0.0029816967 0.019570224 0.0011255268 0.0046833204 0.013525094 -0.011878872 -0.0158102 -0.007552961 0.0015854038 0.010325763 -0.0016429588 -0.00580345 -0.009855985 -0.009867445 -0.0034793415 -0.007966942 0.0046972693 -0.00063930626 0.012182033 0.013462291 -0.008593426 0.0026409433 -0.010194711 -0.0063621937 -0.012364465 0.0060541187 -0.0033684291 -0.0070266994 0.010003475 -0.009631478 0.0051897396 0.013138213 0.0059645823 0.0061787385 0.0068882066 -0.008470661 -0.009494324 0.009064719 0.0027392537 0.008634374 -0.010310008 -0.0101583265 0.008596847
pasean 0.00044892114 -0.008588181 0.007814136 0.00012734238 -0.007515882 -0.0037072282 -0.0015812032 0.00066197815 0.0028352889 -0.0064352592 0.00953348 -0.006304585 -0.004285971 -0.0072091017 0.005096367 -0.001060633 0.011190509 0.011549845 -0.0031801797 -0.0054417634 0.012799693 0.01438355 0.003619165 -0.013664193 -0.005957303 0.0017610589 -0.0150361005 0.007059789 0.0093638925 -0.008320019 -0.008782962 0.0014660116 -0.0011915131 -0.0032990477 -0.0021035045 0.004219127 0.011169031 -0.0043811575 0.0043120836 0.0020893833 -0.007549783 0.0091265505 -0.003036237 -0.014719648 0.0072839567 0.005601088 -0.003882013 -0.011395941 -0.0073052873 0.0013209633 0.010030471 -0.0016672853 0.007070975 0.01042917 0.011588639 0.005748644 0.012087084 -0.0033839229 -0.011156214 0.0004469878 0.0063163117 -0.009025872 -0.0030016126 -0.0012448815 0.00840318 -0.00027177282 0.0038738458 0.0018515966 -0.0025831072 -0.0071281935 0.00022641614 -0.004581485 -0.019087866 -0.004125849 0.008977065 -0.01127831 -0.0012633126 0.01032907 -0.0060382127 0.0050396016 -0.0021946987 -0.0012364779 0.008165991 0.013213245 0.016814636 0.008753271 0.0069658617 -0.0095424745 0.0075392635 0.013421063 -0.013724613 -0.004864985 -0.0062443353 0.005247513 0.021756588 0.002502716 -0.0037217506 -0.014406721 -0.010364156 -0.004523559 -0.012935817 -0.0062679104 0.00705238 -0.0009957997 0.010164063 -0.012210196 -0.005191638 -0.010066768 0.0022106797 -0.016540231 0.007042151 -0.0046407073 0.0074954415 0.011203428 0.003912009 0.0049409107 0.0027941035 0.0040537184 -0.00035548955 0.000232095 0.00024215154 -0.0015676507 0.000105881474 0.0053838072 -0.0016415925 -0.007871254 -0.0054020663 -0.0045347745
desde 0.0031170067 -0.015252387 0.027504196 0.004424484 -0.0015308727 -0.02171506 0.007030965 0.0065975436 -0.0025663716 -0.0043490115 0.023700118 -0.013363812 -0.013937798 -0.0105837425 0.013419884 -0.001562957 0.010886336 0.008865009 -0.0002828863 -0.0057813977 0.01597677 0.021469496 0.0068686535 -0.007735615 -0.0071410094 0.0052712397 -0.013606847 0.021227846 0.0064909183 -0.0019459024 -0.030279908 0.008350899 0.011643232 0.0018674344 0.00070138084 0.0039600795 0.02864953 -0.0023217886 0.017283075 -0.004365346 -0.005127334 0.015875341 -0.008726002 -0.01403712 0.0067776516 0.007094381 -0.017978234 -0.0047253994 -0.0043028104 0.009851466 0.017151047 -0.004368241 0.011037076 0.0093451105 0.009346867 0.0006327178 0.016367411 0.00091256486 -0.016860655 0.0121028405 -0.004002801 -0.010181311 0.009148937 -0.013579536 -0.0018301632 -0.006171384 -0.004029282 0.0035119788 -0.0014656374 -0.0004661772 0.009849764 -0.002682074 -0.025733408 -0.019625152 -0.0026313274 -0.020381225 -0.0041014557 0.00014776293 -0.017759051 0.008021848 -0.0037730627 -0.010160802 0.014527501 0.032453563 0.020343395 -0.000992074 0.027040524 -0.014155621 0.01039738 0.025392376 -0.01367471 -0.012246844 -0.0033536316 0.0060327672 0.028439377 -0.003881787 -0.01556158 -0.02465962 -0.0050186473 -0.013679132 -0.018855134 -0.00412385 0.0030672853 0.007654336 0.015181843 -0.020971939 0.00090473646 0.00016008144 0.002939672 -0.021148214 0.005109378 -0.01024986 0.00048152433 0.001769964 -0.012078238 -0.0016328173 0.014245995 0.022597432 -0.0014029877 0.002318445 -0.0047240206 -0.011033676 0.0025894137 0.0066197985 -0.003790487 -0.0034628154 -0.011377978 0.006404656
tiene 0.003942659 -0.00053883926 0.01851743 0.007229057 0.004010856 -0.016537428 0.005703249 0.009874411 -0.008187376 -0.0075344224 0.015345677 -0.00082644867 -0.014284402 -0.0024648015 0.0050297207 0.0019485491 0.009698172 0.00013667457 0.0037798872 -0.008175809 0.014906756 0.020685762 0.005411055 -0.016394455 0.0015044963 -0.007028154 -0.014703457 0.010193131 -0.0023414742 0.0014839473 -0.0084864 0.0014112015 0.009544927 0.008462206 0.0020886313 0.004122334 0.019766144 0.00507841 0.013074826 0.0019748285 -0.0114594195 0.01268676 0.004858833 -0.0012219572 0.001134974 0.0024727236 -0.006649868 -0.0011784558 -0.0085352175 0.006508687 0.012134076 0.008735485 0.003936215 0.008309059 0.012822853 0.0021249994 0.015615245 -0.011222405 -0.0061692297 0.008641783 0.0029842737 -0.013418739 0.00010612868 -0.0017199203 0.002823086 -0.0037256964 0.0067895222 0.0072648004 -0.0056511834 0.0074927616 0.00022474499 0.00011388042 -0.0061957315 -0.009731882 -0.0029298512 -0.008559381 -0.0045868214 -0.0011942363 -0.012995552 0.012552303 -0.011310673 0.0007189502 0.0064155883 0.02094734 0.0053832247 -0.0019569125 0.018376172 -0.012039837 0.0073410855 0.010773501 -0.012431468 -0.017919613 0.0036060158 -0.0018936624 0.017674021 -0.0059124576 -0.005273105 -0.013337404 -0.007074803 -0.007162267 -0.018541947 -0.0012298125 -0.0005640481 0.0027052262 0.0018201673 -0.015784077 0.0063324836 -0.003678487 0.0021419907 -0.009713048 0.009414619 -0.006039492 -0.0072690174 0.0062207663 -0.010781736 0.0030459934 0.015510834 0.011750301 0.009938428 0.0074679023 -0.0002831324 -2.4708355e-05 0.008764136 0.0022596815 -0.0055271136 -0.009044569 -0.010313616 0.0027807858
sobre 0.008139332 -0.012537252 0.0077401786 0.01051251 -0.002852269 -0.014903772 0.0012859324 0.0004481438 -0.0069017108 -0.008002488 0.007821454 0.0015821778 -0.001537465 0.0039029578 0.010851032 0.0044189882 -0.0015222878 0.00987821 -0.010261827 -0.004457647 0.013639923 0.016088229 0.0019359097 -0.012986089 0.0038653947 -0.0029204057 -0.009342881 0.013428274 0.006299774 -0.0011159605 -0.011780491 0.007530577 0.008954414 0.0061344374 0.00580604 -0.004053088 0.012424542 -0.0012397077 0.01181432 0.0054098256 -0.00018363757 0.0073419726 0.00394553 -0.0017484592 0.006165525 -0.0028611312 -0.006604337 0.0038669256 -0.0055020438 0.0056017707 0.009228928 -0.004585814 0.011029275 0.006350016 0.0076577426 0.009330649 0.011365734 -0.0021051643 -0.01241384 0.011687018 -0.008096635 0.0025679665 0.007134219 -0.0031321025 -0.0049813455 0.007291676 0.00048072793 0.0075270752 -0.0019971475 -0.004171151 0.004836688 -0.0045368327 -0.015508621 -0.015377007 0.005304584 -0.0067016673 -0.0017953387 0.0069472385 -0.006694581 0.0005233806 -0.0007741454 -0.0066135246 0.0083467625 0.019938083 0.0057378644 0.0066958545 0.013409044 -0.0065871715 0.000439406 0.01606017 -0.0035225993 -0.009084359 -0.0007075388 -0.0027659575 0.013308722 -0.0010586894 -0.0016847494 -0.012393764 -0.0025704107 -0.000559766 -0.014294073 -0.0009961713 -0.0056941155 0.0047344626 0.0060665607 -0.0045307865 0.0024211253 -0.0019011592 -0.00020651578 -0.009798975 0.006634838 -0.0047980067 -0.00405778 -0.00038934487 -0.010472306 -0.0075721955 0.008111983 0.011576567 -0.0017725105 -0.0070943884 -0.007477898 0.00056866684 -0.0060342285 0.005016552 0.005748479 0.0031008087 -0.012489754 0.0047432985
vuela -0.0030623227 0.0015886619 0.006958148 0.0017640834 0.0023189778 -0.008946382 0.0036843854 0.0019795166 0.001246269 -0.011178259 0.013101957 -0.0051602605 -0.009738104 -0.0027993054 0.003173558 0.00062330026 0.0019222074 -0.002733617 -0.0089500155 -0.0059958566 0.00097485154 0.0070941104 0.01403051 -0.008681174 -0.008686821 -0.0045713997 -0.0038641775 0.006379437 0.0010911681 -0.007795761 -0.0068122204 -0.0055797105 -0.0033371532 0.0065900562 -0.0068303607 0.0023098667 0.01269603 0.007611448 0.010702426 -0.00077059213 -0.0022823368 0.0063342773 0.0005128808 -0.009181759 0.009979812 0.008738613 0.0017999363 -0.0041434816 -0.0025439635 0.0102171805 -0.00074153894 0.0004662701 -0.0003239601 0.009337903 -0.0007704162 0.0056149135 0.018191844 -0.004439775 -0.012399 -0.002354837 0.0019955572 -0.008659306 0.008531731 -0.0041879294 0.0072971475 -0.00031435714 -0.0030057905 -0.00086072204 0.0009916708 -0.0040237443 0.010398573 -0.00093016785 -0.015478015 -0.007876972 -0.0027380157 -0.013978752 -0.00517916 0.0017891094 -0.005142285 0.009791753 0.0022644845 0.0032920504 0.013171479 0.013670223 0.0025449172 0.008907445 0.010061776 -0.00032131094 0.0037987037 0.014588392 -0.0015060311 -0.015359743 -0.0035929638 0.0012539754 0.01299498 -0.0059847194 -0.0014336172 -0.006617518 -0.0020721427 -0.006744554 -0.0152183 0.0070416206 -0.005633579 -0.0019903616 0.0083081415 -0.013497236 -0.00083910156 -0.0035885023 -0.0036781128 -0.015073658 0.0055441153 -0.0017777369 0.002628938 0.0029719966 0.0023943668 -0.008961324 0.011699479 0.0047617992 0.0043625785 -0.0048152455 -0.0049327887 -0.008452534 -0.0014334966 0.008587193 0.002991156 -0.00075604714 -0.011883966 0.0068630823
persigue -0.00592652 -0.003937247 -0.0008783875 -0.0035985373 0.0010753075 -0.005923794 0.0018143102 0.0052232803 -0.0059607187 -0.0026708257 0.0011402351 -0.009371837 -0.009698616 -0.00022596333 0.005058488 0.0006470872 -0.002415457 0.004678898 0.00019464095 -0.0074605937 0.008743654 0.010230395 -0.0033987262 -0.0034226803 0.003636312 -0.0021317927 -0.0029099183 7.331299e-05 0.0056618187 0.003744772 -0.0029096596 -0.003402653 -0.0005085646 -0.0028058612 -0.00824767 0.006266954 0.004408514 -0.00048559566 0.008429901 -0.008034941 0.0031836417 -0.0040967567 -0.0046941866 0.0012361703 -0.00014417648 -0.0011308317 -0.0069803037 -0.004405241 -0.0026896864 -0.0011587212 0.00968147 0.007766353 0.0015953539 0.0019876293 -0.001979152 0.0073674885 0.00050855486 0.0034940115 0.0049903314 0.0061403667 -0.0009562024 0.0025569946 0.0067678425 -0.004418571 0.0010886719 0.0050873547 0.0053343903 0.001225654 0.0021218958 -0.00516826 -0.005342458 -0.0031040397 -0.0085823955 -0.0029588353 -0.0026351686 -0.003262667 0.0056226673 0.008833485 0.0039361743 0.004639417 -0.0034692064 0.0011508847 0.0012057007 -0.0017982556 0.008163216 -0.0059705684 0.0070725633 -0.004645747 -0.0024382046 0.003157016 -0.0073660957 0.0029063758 -0.0059489966 -0.006521029 0.008879328 0.0039858585 0.0015937545 -0.0017544194 -0.0036422366 -0.0055287117 -0.0023504049 0.0069046416 -0.003908812 -0.00037552047 0.0033131505 0.0026135473 -0.00431531 -0.004386489 -0.0028995518 -0.0027489627 0.004964468 0.0032938367 -0.006847837 0.0072679445 -0.0031838012 -0.0027730512 -0.004172493 -0.0009998793 0.008613587 0.0025717998 -0.007535555 0.00081003003 -0.0050563077 -0.006738767 0.0032831442 0.0008344604 -0.0017956508 0.007948296
bonito 0.0056411633 -0.0071205003 0.008057978 0.0039177192 0.00086825487 0.0019478935 -0.005499356 0.0010841878 -0.0007521435 0.0031378323 0.0040387064 0.0038037994 -0.0065776 -0.008584816 -0.0031271412 -0.0026672187 0.00938305 -0.001498295 -0.0054320134 0.0060742586 -0.001479515 0.007443205 0.00816 -0.009877935 -0.0017276817 -0.0018172994 0.0007353939 0.0011888411 -0.0039140703 0.005400021 -0.01004883 0.0062528197 -0.005253765 0.005858739 -0.0034735715 -0.0057798987 0.0059494106 -0.0018081412 0.002770191 -0.0022353183 -0.007613943 -0.00026251943 -0.0031933694 0.002235736 0.008270963 0.001547143 -0.006611525 0.0022087262 -0.007797697 0.004042532 0.006449705 -0.0010167707 -0.0008305959 -0.003478239 -0.0030423328 0.007273998 0.009082503 -0.001974267 0.00466138 -0.0044971327 0.00022925208 -0.002848251 -0.0045263763 -0.008978352 0.0063702227 -0.0029251555 -0.0052582854 0.008159654 -0.004600325 -0.002552064 0.0042100023 -0.0015394442 -0.012368699 -0.0077671376 -0.0064280923 -0.0030902706 -0.0041946564 0.0018819409 -0.0009150965 0.0020657552 0.005028953 0.004457341 0.004337646 0.0069181393 0.0045523923 0.006341575 0.01292621 -0.00385181 0.001494708 0.0031776496 -0.002717423 -0.01034177 -0.0022462567 -0.0060915723 0.0067857066 0.0018177183 -0.00013170205 -0.0074400115 0.0035011736 -0.007801507 0.0025248819 0.001012185 0.0024048304 0.005440025 0.002947019 -0.0016979814 0.0021313962 -0.00871853 -0.0036145835 -0.0073958244 -0.0060743797 0.0012453734 0.0036602651 0.00061984506 0.0041122953 -0.0017164502 0.003701882 0.009561765 -0.0049659964 -0.0050715106 0.0042062043 -0.006969447 0.00722011 0.0048179775 -0.0059583723 0.0055477023 0.0009990437 -0.003825518
más -0.004873347 -0.015941996 0.020117871 0.011036334 -0.004515275 -0.01223682 -0.006997347 0.004634954 -0.00051641103 -0.012802528 0.005988939 -0.0063172993 -0.015152402 -0.010011452 0.010594831 0.008024568 -0.00022653476 0.014032444 0.0026933772 0.0031211118 0.009147055 0.02493099 0.0048451414 -0.014691576 -0.0028876208 -0.005742208 -0.01857035 0.016127301 0.010268109 -0.011240964 -0.022282563 0.004398116 0.004440722 -0.005897914 0.0029417651 -0.0016747991 0.02301439 0.0024184335 0.01894953 0.0029563857 -0.0013070051 0.0008715745 -0.0011237821 -0.012104896 0.01175843 0.013796438 -0.0048738755 -0.012838913 0.005246286 0.0076158745 0.009936169 0.0056787985 0.0033574672 0.008787096 0.010750057 0.0105814645 0.021348255 -0.0059092497 -0.015345552 0.0034388711 0.0061453786 -0.014991169 0.013405115 -0.005439967 0.0010872269 0.007579906 0.010258133 0.012427619 0.007874306 -0.008400151 0.014305504 -0.004707403 -0.024144929 -0.020820688 0.003698808 -0.0064129415 -0.0066705146 0.0029409055 -0.010838048 0.0077823293 -0.006236023 0.00046788104 0.016703863 0.019105796 0.008730207 0.0011841711 0.014756941 -0.003218724 0.015946118 0.02240817 -0.015146368 -0.020712877 -0.009583181 -0.002839045 0.021208238 -0.0024951005 -0.0072066667 -0.007932131 -0.0004904732 -0.0055876225 -0.008109893 0.0067041935 0.0009696634 0.0013811724 0.0071097505 -0.0053013 0.008753485 -0.0066296374 0.004393459 -0.0137868775 0.0076823244 -0.008813422 0.0032746599 0.0067173443 -0.0124487365 0.0017070223 0.0044308053 0.00923869 0.0071831676 0.008155161 -0.006507958 5.1724808e-05 0.0061303456 0.00470719 -0.0038053885 0.0007861141 -0.018061994 0.0005242147
verde 0.0046858927 -0.008525778 0.008440806 -0.0013630033 -0.0006517939 -0.008866551 -0.004991283 -0.0005104613 0.005795037 0.0029248362 -0.0044452474 -0.006785017 0.000803831 -0.007848482 0.0067971502 0.0051823216 -0.005959383 0.008536897 0.0049671372 -0.0016013321 0.0043057534 -0.000530518 0.0074595367 0.0033340135 0.002122187 -0.006860978 0.0013934373 0.00082941126 -0.0008148071 0.0031638308 -0.0030011495 0.003932683 -0.004120841 0.004314747 -0.0033475477 -0.00012716101 0.009545817 0.0031639824 0.0087472275 -0.00393884 0.0011800504 0.0073954426 -0.003149089 0.0018910798 -0.0048565413 0.0084842 0.0010459345 0.0028138875 0.003060618 0.0055122594 -0.00043499641 -0.0045750733 9.0318696e-05 0.0032402838 9.306895e-05 -0.005541034 -0.00071957184 0.0054240194 0.0052008093 0.0062862486 -0.0034121426 -0.0011389334 -0.005396073 0.0040122564 0.00090756785 0.005701088 -0.003468967 -0.00087282644 0.0024599896 0.002578744 -0.0032540872 -0.005045774 -0.0026091605 -0.010326472 0.0049497047 0.0014138777 -0.0033073062 -0.003195476 -0.008603938 0.0011694808 0.0042046704 -0.00083511753 -0.0030193373 0.011987937 -0.0040132664 0.00519047 0.009052119 -0.0006692959 -0.004920646 0.008644875 -0.008205414 -0.007592434 0.0069681047 -0.006015802 -0.0017830328 -0.0033887783 0.00063254836 -0.0020573994 -0.005005313 -0.004014218 0.0031824636 0.008044645 0.008246258 0.0022565315 0.0050110137 -0.0015322295 0.0019032774 0.0029471049 0.0010548919 -0.003453508 -0.0017193903 -0.0061800997 0.006251394 -0.0030340834 0.0010056313 -0.0011385314 -0.0003105528 -0.0004967795 0.0036799193 -0.0043262998 -0.007021494 -0.0033895073 0.0041690953 0.005154167 -0.0008740554 0.0050146454 -0.008581398 -0.0027495015
corre -0.0052466486 -0.008866205 0.013551059 -0.00467172 -0.008205339 -0.013988241 0.007056989 0.0019988206 -0.0012709129 -0.007280627 0.004161542 -0.0031641955 -0.0057568443 -0.007986895 -0.0017083714 0.0028144075 -0.0049591283 0.004355509 -0.003825434 0.006260465 0.00566075 0.012767096 -0.00048073783 -0.011174178 0.0023851548 0.0008773837 -0.009007555 0.00427811 0.008758379 -0.010492871 -0.011722821 0.0013514374 0.0015336828 0.007885554 -0.0026573366 -0.005146463 0.003335204 -0.0077222725 -0.00046236283 -0.006519922 -0.007964592 0.002376573 -0.0014189264 -0.008844557 0.0066939252 0.0061875507 0.0032703432 -0.006392217 0.0028031026 0.009420968 0.0015274159 -0.005161919 0.0010459032 -0.0012400652 0.009754271 0.009653919 0.0148826055 -0.008945442 -9.004269e-05 0.0069453553 0.0041207913 -0.0100729475 0.0026551744 -0.007834938 -0.006026791 0.0018462877 0.009207336 0.007723524 -0.005106417 0.001579003 0.0006458196 0.009167898 -0.015256684 0.0013194674 -0.004326741 -0.011131475 0.00050388306 0.0019367604 -0.010748379 0.0048686718 -0.002790201 -0.006421465 0.010939767 0.012385693 0.01189372 0.0073034912 0.0026431798 0.0007457266 0.00834439 0.012022299 -0.0001150295 -0.010925831 0.002305782 0.001860697 0.008392045 -0.0040892577 -0.0028569438 -0.0028377352 -0.008664322 0.0038843583 -0.0046902653 0.0009053645 -0.0017612703 0.0030229178 0.008373208 -0.0013500107 -0.0034253418 0.004570363 -0.0021549575 -0.013747729 0.008603344 0.001993983 0.002808574 0.009229432 -0.008136208 -0.005679515 0.003664521 0.0035547444 0.001106894 -3.7763457e-05 -0.00877283 -0.0011063654 0.002830118 0.00021219045 0.004337739 -0.00037594963 -0.0006467588 7.2761606e-05
cama 0.008597561 -0.009098281 0.017483603 0.001819084 0.002164338 -0.0094646765 -3.6367877e-05 0.014653948 -0.010368039 0.0032897028 0.012388619 -0.008215813 -0.010421821 -0.011207327 0.004181368 0.0034770733 0.010265405 0.013514308 -0.0108698085 0.00633659 0.0038909705 0.017776728 0.01605458 -0.01220517 -0.009883848 -0.0063400324 -0.008201578 0.011445991 -0.004362251 -0.003650739 -0.014602354 0.004330151 0.0067844996 0.003523544 -0.009957647 0.005076367 0.020787282 -0.0060943305 0.0085123535 -0.0031256564 -0.0069553517 0.0054241777 -0.006127904 -0.009606484 0.012981448 0.00522632 -0.006826931 -0.003394796 -0.005422476 0.000895335 0.015694993 -0.0066026156 0.004922889 0.0067340103 0.002291597 0.005684672 0.021854198 -0.0055305017 -0.00084466167 0.0060288943 -0.005146036 -0.0077988217 0.0041689384 0.00017772616 0.007500467 0.004627432 -0.002434336 -0.00070626434 0.0058707674 0.001618089 0.011502661 0.0030091652 -0.009174292 -0.019236743 0.009563847 -0.017186143 -0.002960844 0.0097076 -0.015222623 0.012990784 -0.010475281 -0.008414335 0.013869095 0.020247791 0.0077633103 0.009232054 0.00900944 -0.0053973957 0.013620936 0.01495338 -0.013488489 -0.010479076 -0.0062024062 0.0021659704 0.017982364 0.008095575 -0.0012743643 -0.017280674 0.0047886865 -0.009984375 -0.0070407707 -0.0048800637 -0.004388507 0.0044230786 0.00048152276 -0.012687891 0.0020554957 -0.003212106 -0.010866406 -0.019132197 -0.0027823085 -0.0039428226 0.0039358754 0.0054333387 0.0038040967 -0.0048975633 0.01633274 0.017608678 0.010709891 0.0006758235 -0.004485419 -0.0029882367 -0.006525861 0.0089524025 -0.0010765524 0.0035029275 -0.008347266 0.0057832096
debajo 0.0011267542 -0.016907014 0.018654343 0.008133678 -0.010843496 -0.017060122 -0.0022735072 0.0051291306 -0.0018304108 -0.0034754716 0.017195929 -0.012628836 -0.013087637 -0.0008636596 0.0123985885 0.006028049 0.009736271 0.0017661683 0.0017445242 -0.0062273266 0.006694683 0.024325976 0.009457356 -0.01938543 -0.0068208794 0.0050138235 -0.012994346 0.018136378 0.003785525 -0.0040455023 -0.018271865 -0.0063256402 0.0010674564 0.008147286 -0.001445876 -0.004173209 0.026071407 0.006023196 0.017623387 -0.0040962603 -0.014845133 0.004644605 0.002037104 -0.016445255 0.018840862 -0.00087036006 -0.01538473 -0.00995363 0.0022800842 0.0022813675 0.016794274 -0.006298238 0.010879707 0.01181587 0.009806875 0.012708876 0.022369467 -0.0047519784 -0.0046322504 0.011860238 0.0016598657 0.00011489812 0.0045818924 -0.012379234 -0.0013469111 -0.0015275516 -0.0030955882 0.0044220444 0.0075375796 -0.004348372 0.012634998 0.006541579 -0.01865439 -0.013514004 0.006683423 -0.01762104 0.0013045141 0.0125365965 -0.012207083 0.005344707 -0.013055467 -0.010661173 0.017173203 0.026148045 0.017268507 0.002258888 0.017916085 -0.004231293 5.183426e-05 0.008380854 -0.0058469246 -0.022349287 -0.0050813863 -0.0015188036 0.023142502 -0.00025449586 -0.00043614086 -0.015145701 -0.0072629345 -0.009513262 -0.0144541785 -0.0026634953 0.007985852 0.01341021 0.01153697 -0.01735775 -0.0017312752 -0.0035606723 -0.0043643974 -0.020662753 0.010003304 0.00076030596 -0.003494506 0.008309275 -0.0007690654 -0.00038871076 0.018590674 0.014001037 -0.0001471472 -5.666751e-06 -0.011467724 0.0024989354 -0.00516079 0.0007348942 -0.0012496853 -0.00052942696 -0.0077686887 -0.0025223785
esconde -0.0015100347 -0.0078989975 0.018899847 0.009065033 -0.0037927455 -0.012927233 -0.0066234795 0.011712073 -0.01035114 -0.0020282234 0.009539815 -0.012783465 -0.0020740514 -0.004488842 -0.001244223 -0.005936505 0.005810614 0.00024117535 -0.0012462164 0.0020739164 0.014008976 0.011143961 0.016408024 -0.017799225 0.0020418735 -0.00023716752 -0.010693356 0.01573933 0.0013409923 -0.009866498 -0.018962996 -0.0039371597 0.0032082575 -0.0031460652 0.0012602705 -0.0070309713 0.014802994 -0.007213487 0.003104305 -0.004104268 -0.01315061 0.0020042807 0.0004487372 -0.0112070115 0.012313355 0.012495558 -0.015365835 -0.00036724212 -0.008573057 0.012561626 0.0147551205 0.007939054 0.0008868775 0.010782647 0.0024204308 0.003535203 0.012210056 -0.011221893 -0.0036067339 0.009524823 -0.0037974557 -0.012713404 0.0077572106 -0.008138008 -0.0049359887 -0.0036850835 0.0006164785 0.01200394 -0.0039911987 0.0054519917 0.01244502 -0.0012034327 -0.017418444 -0.014763497 0.0044283303 -0.011503198 -0.0038743299 -0.0022569452 -0.00335913 0.0024312579 -0.01202222 -0.002127537 0.014902698 0.019666407 0.010650424 0.0051780827 0.016596051 -6.07702e-05 0.00430616 0.008345493 -0.014663921 -0.00765525 -0.0008166022 -0.0029020652 0.021438427 0.008872384 -0.0010955371 -0.01931902 -0.0068579237 -0.0075657885 -0.018816043 0.0051374524 0.0062595895 0.00078121264 0.012814425 -0.016359534 0.0074161855 -0.006915386 -0.001622837 -0.017111728 0.005883567 0.0023511308 -0.0012094602 0.0018762477 -0.010989787 0.0008604164 0.013739725 0.018588174 0.0011248774 -0.00715278 0.0010000519 -0.008251996 0.0049056094 0.008207689 -0.0022643982 -0.0011977896 -0.013196381 -0.0015695316
fútbol -0.0028235542 -0.006987175 0.0073285415 0.0028762317 -0.00441161 -0.0054011545 0.0007850243 0.011764949 -0.00045733125 -0.006827744 0.0063113426 0.0019151754 -0.00080474885 -0.010745378 0.009434773 0.0077922307 0.011477597 -0.00036638873 -0.005510829 0.00037809683 0.012379889 0.012145841 0.004870461 -0.003925789 0.0020763234 -0.00020113474 -0.013005066 0.0073897024 -0.00099298 -0.0021556253 -0.01446486 -0.00091896945 -0.0043152333 -0.00029048254 0.0030077833 0.005521817 0.019232882 -0.00216895 0.016748454 -0.0025924686 -0.0047434927 0.010710187 -0.0068132677 -0.003591631 0.015925488 0.008253691 -0.003957687 -0.0011566079 -0.0035189302 -2.4062865e-05 0.008573128 0.0017657549 0.00096558855 0.008550805 0.012221198 -0.0016385564 0.016215637 0.0022361 -0.013576293 0.007836847 -0.007348346 -0.012057807 0.009839327 -0.010157617 0.0007208492 -0.0064754444 -0.003832182 -0.001138425 0.0010149705 0.00089169916 4.6091736e-05 -0.0038155892 -0.016736567 -0.012098866 -0.0035152899 -0.012950728 0.0016469688 0.0065132254 -0.0018534292 0.01231879 -0.004864292 -0.00037625473 0.017929742 0.018272808 0.010403786 0.003548352 0.006081383 -0.0007493266 0.010375221 0.01259955 0.00034104282 -0.016773358 0.0006597078 -0.004660937 0.007103899 0.0031078048 -0.0032561345 -0.0071244785 -0.009368892 -0.001429892 -0.0100071225 0.004694248 0.0010663463 0.009141452 0.012004042 -0.015293851 -0.005704661 0.0026535448 -0.0034601109 -0.019746864 -0.00040754554 -0.002424262 0.0065991837 0.0039256923 -0.004523821 -0.007417668 0.0027024176 0.012643835 0.0037011078 -0.0054589678 -0.0030438884 -0.011395427 -0.00038705888 0.0047556898 0.0018263679 0.0036502916 -0.003713801 0.0022200444
ratones 0.0052229 -0.0008551559 0.017766265 0.010764578 0.0019188537 -0.004804147 0.005393284 0.0043207803 -0.0071658916 0.0035767627 0.009277563 -0.0085564265 -0.005854599 -0.0069405185 0.011432934 0.0035666134 0.0067827585 0.00994068 0.0031809746 -0.004438288 0.003071338 0.007788247 0.003963946 -0.014702186 -0.0032590013 -0.0063733747 0.0010495653 0.0060333735 -0.0027696814 -0.010676305 -0.014698653 -0.006790981 0.0029111612 0.0048188604 -0.003802931 0.00650199 0.01122645 -0.0056188754 0.0053514224 -0.004921813 -0.010001527 -0.0029319979 -0.0046652183 -0.00816707 0.010628073 -0.0016880971 -0.009104915 -0.0024963915 -0.0029722636 0.007945879 0.0044095884 0.0043801637 0.011310303 -0.0006050722 0.009264777 0.007797681 0.010889469 0.0023146945 -0.009777522 0.00066448096 -0.006633711 0.0029090256 -0.0040090587 -0.0057577165 0.0011647436 -0.0039898367 0.009078437 -0.0018886646 -0.005698944 0.0069581773 -0.0015466543 0.0095481165 -0.014578501 -0.004220141 0.0008099869 -0.010875179 -0.00690068 -0.0015444462 -0.00027536514 0.012182104 -0.0032019678 0.0031888771 0.011875615 0.016573157 0.009265177 -0.005469067 0.018140497 -0.010622928 0.0026210397 0.011168618 -0.0015967614 -0.016993342 -0.00029679883 0.0062816874 0.0044345125 0.008777103 -0.009764776 -0.0020434028 -0.007253085 0.001207608 -0.0022052985 -0.0061034244 0.0015106981 -0.002120412 0.01127282 0.0005551134 -0.0031391901 -0.0017343038 -0.0038183464 -0.01603751 0.002774782 -0.010667761 0.00196655 -0.0017208771 0.001389443 0.0047660833 0.0049871886 0.0060228617 -0.0044313227 0.004475694 -0.00065749825 0.0034604806 0.0038810733 -0.0011030112 0.0035612595 0.004909803 4.899932e-05 0.008625817
alimenta -0.006071456 -0.0088758925 0.011122841 -0.0040562325 0.001591504 0.0020810487 -0.0026955358 0.008194122 -0.0077632433 0.0033778204 0.008657657 0.00033014812 -0.009160761 0.0058275713 0.008647098 -0.0007102614 0.0049404725 0.0075779334 -0.002935935 0.0040145675 0.0009327152 0.0044427165 0.002381879 -0.0070637013 -0.0020599707 -0.006163048 -0.00066511374 0.0115318755 0.0049505997 0.0028263987 -0.009726386 0.0042011687 -0.0039597633 -0.0036030214 0.0070562875 0.0053482438 0.002551576 -0.004752491 0.009612402 0.00086796633 0.0029495168 -0.0028570956 -0.0015078271 -0.004401269 0.0033223962 0.0038901498 -0.008099389 0.001595837 -0.0030153908 0.009181722 0.0022735933 0.0076737474 0.0019440261 0.0069122207 -0.0027266708 -0.0054226574 0.005532026 -0.0032825435 0.005060231 0.00567805 -0.0046437387 0.0035066633 0.0021246236 -0.009086476 0.0051922686 -0.0015153865 -0.006538972 0.00872817 0.005946664 0.0064655254 0.0029166103 0.0069604972 -0.0017749651 -0.009912383 0.007926339 -0.006764132 -0.008189104 0.008434531 -0.0069598816 0.01025595 -0.007857238 0.006204199 -0.00016802843 0.010055291 0.01143326 0.004335631 0.0039216867 -0.0059368657 -0.00492982 0.008429283 0.002985888 -0.008731674 0.0037851834 0.0060507376 -0.00120952 0.0022927264 -0.0082055 -0.008362606 -0.00041410272 -0.0076515926 -0.0081314985 -0.005296279 -0.004917172 -0.0034733124 0.010343467 0.0030666494 0.0007513711 -0.0034095875 0.0037995288 -0.0039766054 -0.0059418906 -0.006878518 0.00076831755 0.008371429 0.00097338227 0.0070179114 0.008739045 0.004909255 0.00846708 0.007399488 0.004818706 0.005670864 -0.0068031694 0.0033934088 -0.005851557 -0.0065050935 -0.010236106 0.003823391
pequeño 0.0017116053 -0.011967519 0.017619843 0.010676562 0.0011574627 -0.00437776 -0.003551818 0.0016873362 -0.00035781434 -0.0065470287 0.0046488303 -0.0025273568 -0.009154512 -0.007589273 0.00728222 0.006673923 0.009190105 0.0058233542 0.003015388 0.0016141032 0.015144022 0.012539485 0.010042421 -0.0040466245 -0.010964354 0.0046717473 -0.007192421 0.015607132 0.0017640686 -0.0074705537 -0.018969178 -0.0014222796 0.0012374368 -0.0033093423 -0.0012375353 0.0070048445 0.019504424 -0.0059873685 0.003504099 -0.0052610287 -0.0025909033 -0.0015465843 0.00317183 -0.006160355 0.0059411093 0.012361876 5.985002e-05 -0.003942962 0.0016328174 -0.001035533 0.0006135653 -0.0010971229 0.0134034995 0.009363719 0.012237938 -0.0016469853 0.017420417 -0.003623352 -0.0074147466 0.0023983931 0.00350831 -0.012949624 0.008176742 0.0003915974 -0.00033957718 -0.0034170938 -0.0035329168 -0.000525365 -0.0035358677 0.002328171 0.0024964563 0.0014995098 -0.02082007 -0.013227783 0.00077020464 -0.015616353 0.0011865386 0.01175349 -0.0034536517 0.010255839 -0.008045985 -0.003324568 0.012496631 0.017891852 0.015760478 0.0017168473 0.018796572 -0.0007748057 0.008633236 0.018238094 -0.011080692 -0.01494162 0.0038103124 0.008300353 0.016548816 -0.0015813039 -0.00079564675 -0.009667369 -0.002629759 0.0019619958 -0.008267266 0.004576287 0.0014193868 -0.0025422561 0.0033861757 -0.0066808397 -0.0023711044 0.0029429956 0.0032216862 -0.01911384 -0.0014274272 -0.007976965 -0.000776694 0.0037804742 -0.0053107063 -0.0034972562 0.011625028 0.018793378 0.00018541825 -0.005673168 -0.00053932803 -0.009380004 0.0068673813 0.0034904408 -0.0052383766 -0.008651186 -0.016225757 0.0050085313
árboles 0.0037166032 -0.0044380804 0.012549665 0.004998711 0.00034887693 -0.011084403 -0.006568141 0.0056834603 -0.00039106526 -0.0060278303 0.0079227565 -0.0067536402 -0.00048988935 -0.0057129622 0.012372363 -0.0017662864 -0.0039597154 0.00014460445 -0.0069579994 0.00039858415 0.0133036245 0.014153707 0.015021674 -0.007553941 0.0012957616 0.00023885418 -0.00938385 0.014986272 0.0042777588 0.0013926675 -0.020146398 -0.006184612 0.002616899 -0.00076012796 -0.0036750066 0.00024030983 0.010587952 -0.0062534446 0.015223572 -0.005341437 -0.0076143066 0.004021496 -0.0024175663 -0.015224394 0.0062253023 0.0037433142 0.0009298706 -0.010398379 -0.0057155425 0.004445101 0.009263817 -0.0035073275 0.0013906327 9.936596e-05 0.011592992 -0.0032739206 0.010687301 -0.0033687404 -0.005140515 -0.0031559558 0.00635679 -0.0070253233 0.0042554387 -0.010771002 -0.004937973 0.0029285394 0.0053586336 0.0065028835 0.005082648 -0.005679738 0.0050728535 0.00014996782 -0.014057035 -0.0064112637 0.0023528985 -0.014645183 0.0012402979 0.008777958 -0.011199506 0.010760423 -0.0072279456 0.004686165 0.013294919 0.017184602 0.0073031797 -0.004821698 0.019237397 -0.0063410117 0.011609861 0.014736317 -0.013206408 -0.011519438 0.0007141693 -0.00057287293 0.020913059 -0.0023966308 -0.012039645 -0.008056053 -0.0050096978 -0.010198701 -0.009386024 0.0054965112 -0.0030321048 0.00078491645 -0.00019173654 -0.0067493534 -0.0017296524 0.004220127 -0.0019583162 -0.0098002665 -7.0481845e-05 0.0027510158 -0.0007895323 -0.0016638766 -0.009313041 -0.0016617667 0.014431752 0.012954518 -0.000611537 -0.004540146 -0.011045036 -0.0010378519 -0.006040389 0.0037427873 0.0021513035 -0.0030997081 -0.01630298 0.0076355673
juntos 0.0008515067 -0.011935043 0.001708736 0.009246739 0.0001761657 -0.0125148455 -0.00090672565 0.008118793 -0.009252315 -0.007882363 0.005262039 -0.010804218 -0.003373423 -0.00052047835 0.00976596 0.0014374696 0.0034401824 0.0072651124 -0.005435405 0.005125322 0.0058144103 0.007102586 -0.00283287 -0.0048007728 0.0034246785 0.0014260317 -0.011123143 0.0035290709 -0.0030387128 0.0016088099 -0.013487904 0.0045792325 -0.002387407 -0.004849038 -0.0070221215 0.0034627027 0.0020393375 -0.0044834465 -0.00014767969 -0.005157656 -0.0062858765 0.0044233776 0.0042173145 -0.0059526097 0.00056129 0.0040707975 0.0007657993 -0.0067935446 -0.005396346 0.0077319983 0.009265534 -0.0055904263 0.010015348 -0.0037399607 -0.001370814 -0.0024042118 0.009405377 -0.0020956756 -0.0012613649 0.008464441 0.003490065 -0.005701395 -0.0025963928 -0.008859256 0.0005744668 0.0076474333 -0.0047770375 0.005425905 0.0038203865 -0.0036662063 -0.0018341606 -0.0030071987 -0.012038894 -0.011701996 0.0053934534 -0.011606127 -0.0031126759 0.005825769 -0.0037705037 -0.0009759953 -0.0061540552 0.0013735238 0.008225485 0.008122885 0.0045917537 0.0034689226 0.008803725 -0.0051271766 0.007823169 0.0010974884 0.00090989214 -0.0147708645 -0.0029622074 0.00620258 0.0053001 0.0061462526 0.00043910064 -0.012603864 -0.0016596562 -0.0063403933 -0.013048943 9.836836e-05 0.0059094704 0.009589227 -0.00057764427 -0.007040908 -0.0035714384 -0.0007298609 0.0004920341 -0.014788592 0.0034727382 -0.008899527 0.00020869359 0.0066999146 -0.006295532 -0.00079225353 0.0032482322 -0.00041655422 0.00025603024 0.0038977952 -0.008973751 -0.007106594 0.00031083715 0.007093267 0.0016797102 0.0063180225 -0.011195096 0.008953915
descansan -0.0025594963 -0.009688658 0.0030314669 0.0045775054 -0.0037821655 -0.0012488015 -0.00052053016 0.0067696325 0.002316031 -0.009612526 0.005534592 -0.007585583 -0.011158275 0.00036268492 0.005490644 -0.0011111451 0.0014655807 -0.0012360271 -0.005200627 0.00045447092 0.012951153 0.014730641 0.0029509885 -0.003400039 -0.004290384 -0.0037442436 -0.008479488 0.0025344659 0.00460099 -0.009809513 -0.015962364 -0.0029016542 0.007896727 0.0020217884 0.0028834871 0.0067675957 0.0059147705 -0.0036157637 0.012514696 0.001711016 -0.00014091174 0.011050179 0.005835807 -0.008007436 0.00640958 0.007884512 0.0025126126 0.0047926237 -0.0079140775 0.0004011759 0.009031579 0.0015390945 0.0043105027 0.010588714 0.010323259 -0.0031581817 0.007628656 -0.009394647 0.00096847414 0.0057117073 -0.0021146554 -0.0024354395 0.008774813 0.0035370546 0.0060464265 0.0022822702 0.0026006813 0.009518187 0.0014234813 0.00010327454 -0.0033030414 0.003721179 -0.016227307 -0.002191766 -0.0036132422 -0.007856758 -3.4495275e-05 0.00127534 -0.01207115 0.009094032 -0.008094905 -0.008594783 0.010436586 0.01085115 0.011108552 -0.0037128008 0.00988332 -0.0041297534 0.008802646 0.0008179602 -0.00018799656 -0.015396831 -0.007568312 0.0015477623 0.0074889464 -0.0019685922 -0.008810995 -0.0049085333 -0.0091587845 -0.0023060432 -0.0047023688 0.0007613097 0.00075665925 0.008886973 -0.0033783023 -0.013098586 0.004913681 0.0049920455 -0.007953378 -0.014876452 0.0014485271 -0.009500453 0.001547596 0.010833601 -0.0073546064 -0.006277351 0.012944463 0.0072530834 -0.00032900926 -0.0017679505 -0.009373695 -0.0065219007 -0.0020980015 0.0010666553 0.0012346663 0.004467186 -0.0008073877 0.0010975862
hacia -0.0069504143 -0.002043867 0.002993025 0.009981962 0.0015944466 -0.007152978 0.0050688703 0.0012763701 -0.0049727317 -0.0029174027 0.012881844 0.0014748945 -0.0027588783 0.0007946705 0.0007227585 0.0081458045 -0.003069126 0.00093920267 -0.006363244 0.006431415 0.003351894 0.0061699706 0.010705153 -0.013037372 -0.004353045 0.0022438702 -0.009969314 0.013333021 0.0026064469 -0.0074958666 -0.0047402275 0.0066830018 0.002557817 0.005851255 -0.0064336415 -0.002349276 0.017166797 0.0044981306 0.00686726 -0.0045733824 0.000110590016 0.005488809 0.005624379 -0.005246385 0.011848391 -0.0015772617 -0.0098961 -0.0036714547 0.0011804389 0.0023250382 0.009021096 -0.005819724 -0.003324063 0.0101752635 0.009775444 -0.00089457707 0.005220865 -0.0048555047 -0.0041845264 0.01018431 0.00031032128 -0.0049646464 -8.030538e-05 -0.0040739984 -0.0063242665 0.0054278146 -0.005683355 0.00028939423 -0.005252866 0.006936315 0.008520984 0.0010554215 -0.005287297 -0.008425723 0.008565483 -0.008479031 0.0030911972 -0.00054269517 0.0034352688 0.012729671 0.0025339306 -0.0016363297 0.0051617357 0.003304311 0.012631509 -0.0051260493 0.002824366 0.0013842693 0.0018666681 0.013897414 -0.010402972 -5.5146083e-05 0.0007252272 -0.005750877 0.011655358 -0.00291772 0.0009959211 -0.0017919872 -0.0082746325 0.0020968 -0.0029986813 0.005834 -0.0046307533 -0.002200744 -0.0033298775 -0.00091862236 -0.0018346908 0.002241888 0.002108387 -0.0009823745 0.0034048934 -0.0027964197 0.0009321869 0.0053775124 -0.009141284 -0.0058581373 0.004707759 0.010420515 0.0021206073 -0.0070848586 -0.0027610878 0.0030281104 0.005937137 0.0033437687 -0.002912883 -0.0045305444 -0.006889616 -0.0028676742
sofá -0.005462148 -0.006349894 0.012496429 0.007499256 0.00087789074 -0.0020996141 -0.0056504006 0.0129850535 -0.005663136 -0.0026784057 0.0054101483 -0.007744796 -0.006506247 -0.008864511 0.011420087 0.0045925 0.0018412078 0.0062676123 0.0030240247 -0.005224046 0.011124114 0.011636464 0.009421195 -0.009265785 -0.010488756 0.0047505517 -0.007952184 0.00221414 0.0028813714 -0.009537844 -0.006067659 -0.0043445975 0.0011912206 0.0005155333 -0.0049771727 -0.0021813319 0.018847369 0.0014297193 0.00034298113 -0.0027265435 -0.012189945 0.0021394785 0.0026600144 -0.004226636 0.0023618853 0.005315534 -0.0008263679 -0.009555581 -0.004324113 0.0033660536 -0.00082452345 0.0025071104 0.010274204 0.0076770205 0.008262922 0.0024985275 0.010937035 -0.008204979 -0.0058867447 0.009660145 0.0019610405 -0.0042408346 0.009676838 -0.0011841301 -0.0044634724 0.00570967 0.009345613 -0.003430069 0.0061986046 -0.006393327 0.0050698114 0.005527546 -0.01602793 -0.015351036 -0.0045281104 -0.01574806 -0.006436511 0.010857224 -0.0035156338 1.1178554e-05 0.0031720037 0.0035260753 0.01515546 0.021739922 0.0003485673 0.00051378424 0.0126764085 -0.0023485823 0.008904627 0.0041099964 -0.0020664872 -0.002015673 -0.008640112 0.007433387 0.014270151 -0.0017964018 -0.006728402 -0.016624568 -0.00800478 0.0003436273 -0.012149244 0.009062055 -0.005083395 -0.001642821 0.009952271 -0.0010519306 0.004643165 0.0035297722 0.0029805545 -0.0148121705 0.00920942 -0.0077848947 -0.002314119 -0.0005404537 0.0016947535 -0.004805466 0.009675266 0.00821052 0.002172869 -0.004205402 -0.007661803 -0.0062694447 0.0013761017 0.0023581628 -0.0018360714 -0.00030312402 -0.011877583 0.01057312
ve 0.0006469165 -0.011114571 0.009087203 0.009788022 -0.0027112914 -0.012508025 -0.0065865233 0.00083960855 -0.0053829323 0.0027238682 0.0025330032 -0.0031784796 -0.005333489 0.0005414661 -0.0018793365 0.007359131 0.0011713965 0.008942223 -0.01041571 0.0036835116 0.0014023902 0.007961668 0.005601523 -0.00995156 -0.0032298188 0.00014254476 -0.0030297912 0.0069590146 -0.0007027804 -0.009231619 -0.0050579896 0.0045120576 0.009842856 0.004983378 -0.005036048 0.0069976593 0.0069455244 0.0024769735 0.004672669 -0.0021950917 -0.0014921486 0.0024244215 -0.0049340497 -0.0083867265 0.007181484 0.009182989 -0.009936791 0.00015535422 -0.004469615 -0.001170697 0.0014409053 0.0024495958 0.011919827 0.01181066 0.013482022 0.008671649 0.008819206 -0.004831915 0.0016335213 0.009222311 0.0042196508 0.00096590817 0.0047683264 -0.0013747005 -0.0052469745 0.006085905 0.009292886 -0.0020735958 0.0014944102 0.0066331 0.0079718055 0.007383045 -0.0051313336 -0.010124442 0.008304467 -0.0026134406 -0.0025085805 0.0032237058 0.0021990025 0.01150533 -0.008682318 -0.004848083 0.005761803 0.01570698 0.007975359 -0.0049161394 0.012285566 0.0035876962 0.006861251 0.013415635 -0.0040430254 -0.00321161 0.005731201 0.0037497042 0.009288243 0.0042881723 -0.01155633 -0.003037068 -0.0049366686 0.003888427 -0.017088875 -0.000858286 0.008205047 0.00048874086 0.0032768606 -0.002651905 0.009099981 -0.002598207 -0.007606491 -0.0017410923 -0.0053828405 -0.0016394787 0.0042114626 -0.0021679017 -0.007476753 -0.008691375 0.0070592784 0.0129060885 -0.003385377 -0.0017843618 0.0037631001 -0.0069797547 0.00363332 0.0038420798 -0.0022166355 -0.0060705664 -0.0005957173 0.0006075867
cuando 0.008466395 -0.008014078 0.014151918 0.008205951 -0.0016613512 -0.0058530243 -0.0049451096 0.012752527 -0.004422063 -0.0070500644 0.013257419 0.0030452383 -0.010284918 -0.0021568106 0.00804379 -0.0010152225 0.0042940956 0.01223786 0.0028534697 -0.0055396957 0.0062159067 0.018945055 0.006999049 -0.015553002 -0.0036111728 -0.0053007905 -0.0066486076 0.01014586 -0.0008549154 -0.008416862 -0.005805025 0.004589639 0.00469646 0.0023153424 0.0049966006 -0.0034221874 0.018586894 -0.00064847653 0.002098699 -0.010408112 -0.0063133086 0.011670913 0.00017599623 -0.014746343 0.008455652 0.0015974635 -0.009199316 0.0026431144 0.0027852382 0.0059083453 0.008447371 0.0017843496 -0.0024418498 0.008505321 0.012583062 0.006680028 0.014265709 -0.00598859 -0.0039288676 -0.0015201467 0.002724357 -0.0029926943 0.0034016352 -0.0041783825 0.0035782724 0.0017775814 0.0030660676 0.011109152 0.0034526025 0.00078718463 0.0031759308 -0.0026822784 -0.019709572 -0.01209984 0.004835039 -0.002254709 -0.0005359784 -0.00022935298 -0.00322972 0.004613382 -0.00440944 0.0046946094 0.01592372 0.014378549 0.0031851283 0.0049822005 0.019491786 0.0024172845 0.00395763 0.016678562 0.0012321636 -0.018265156 0.005409049 0.0013283426 0.008234756 0.004391211 0.0011076238 -0.01612395 0.0032852942 -0.009411013 -0.016733455 0.005587149 -0.002345761 0.007948361 0.011256988 0.0002763197 0.0063693277 -0.0096356245 7.281047e-05 -0.01781024 0.0020580539 0.0048393314 -0.0041870484 0.007655097 -0.007905214 -0.007935338 0.014192033 0.012567034 0.009302997 0.002923619 -0.0022414543 -0.00079545804 -0.005472011 0.006411581 -0.002897964 0.0015517425 -0.012143725 0.0036508774
sombra 0.0045761117 -0.008159888 0.0056506824 -0.001102194 -0.009897449 -0.0015441232 -0.0037539066 0.0051684533 -0.010104957 -0.0073811375 0.0052288584 -0.0023681358 -0.0011687295 -0.00025064452 0.0125516 0.0026843485 0.011554191 0.01106458 -0.001035171 0.0011934082 0.0026158649 0.009742518 0.011767973 -0.014363344 -0.001202032 -0.005811171 0.00045654975 0.009305974 0.003430747 -0.008526559 -0.007992512 -0.0049015814 -0.0032147157 0.0059881806 -0.0042947344 -0.00015067807 0.017840514 0.0037955225 0.013134562 0.002962877 -0.00027771574 -0.0020149788 0.002477219 -0.0003571936 0.004277646 0.0053920085 -0.008411378 -0.0066893664 0.005148449 0.0053773234 0.009063847 -0.0033211675 0.010154219 0.0033628624 0.0028864315 0.0051442543 0.020014944 -0.007940629 -0.0030596904 0.0035639093 -0.006321513 -0.00845107 -0.0028625857 0.00082031795 -0.00065257197 -0.0041704834 0.0027196384 0.007551804 0.008100845 -0.008176439 0.0054020924 0.0009396042 -0.014391656 -0.00992659 0.007639941 -0.009605082 0.006282647 0.0038548505 -0.0069597084 0.013251281 0.001817683 -0.0018443122 0.009116021 0.01973446 0.004772186 0.0056866026 0.011549281 -0.009230157 0.010631109 0.007816392 -0.004490502 -0.016087733 0.00047381892 0.005773293 0.016335767 -0.0049453774 -0.010644749 -0.004537588 0.0005042709 -0.0036187097 -0.0152122965 5.141969e-05 -0.006013785 0.005064071 0.0017334552 -0.006871245 0.0054283543 -0.0006064123 -0.007888034 -0.009940978 -0.0030041698 -0.005833275 0.0014293655 0.010801209 -0.008592692 0.00044240928 0.013936666 0.017606562 0.008341182 -0.005114911 -0.0002262894 0.0031505658 0.004603376 0.0031917668 -0.00056282396 0.0007444645 -0.004400144 0.00978154
da -0.0013136948 -0.014503391 0.019315526 -0.00039509527 -0.002866436 -0.010080158 -0.0013605045 0.004132927 -0.0030929525 -0.012193104 0.012251556 -0.009146233 -0.0116656935 -0.0007690202 0.006902283 0.0043157134 0.0053801364 -0.0012417047 0.0040773004 -0.0034034224 0.008725609 0.019804746 0.00908502 -0.0073300917 -0.001790991 0.001999773 -0.003486556 0.019016214 0.0028676153 -0.00861593 -0.0119988425 -0.005686218 0.009964837 0.002755923 0.002782485 0.0029155847 0.0155665865 0.0008906033 0.0062267673 0.0040334705 -0.0018066744 0.008892541 -0.0058269217 -0.016200786 0.015399361 0.007825813 -0.010505118 -0.011747788 -0.0053141345 0.008005935 0.0006325687 0.0013382977 0.009052254 -0.00051549694 0.008138854 -0.000631062 0.012213335 -0.0051617436 -0.015020482 0.002453168 -0.006265595 -0.011934599 0.0057587824 -0.002515881 0.009139098 0.006980421 -0.0026496025 -0.0024296243 0.0069942055 0.0037838072 0.012361019 -6.1728188e-06 -0.019061744 -0.015227405 -0.005106424 -0.005401915 -0.004214197 0.01121655 -0.011956402 0.017177097 -0.008097038 0.0041086036 0.007139585 0.012055192 0.015712209 -0.005217211 0.0073052687 -0.0015018014 -0.0009005583 0.017606674 -0.004767726 -0.018617015 0.00046183474 0.0027908885 0.021928383 0.0040612738 -0.011213871 -0.014305617 0.0029714846 -0.0107465675 -0.005181614 -0.0011008511 -0.002276725 0.0014819 0.00898389 -0.016952565 0.0048596915 -0.0066354675 0.0047634454 -0.017071333 -0.003485781 -0.00066121796 0.0070012016 0.0075893197 -0.005946538 0.000917979 0.0022917944 0.008729107 0.0007586024 0.002343694 -0.00900388 -0.010594088 -0.0036064787 0.0056579546 0.0029721125 0.0044931686 -0.0075972476 0.007647284
ventana 0.004492945 -0.0009842535 0.0049691475 0.004118866 -0.0012826697 -0.0027373892 -0.0054525253 0.0040255315 0.00094457576 -0.006693891 0.00018741212 0.00063896494 -0.0051180334 -0.0018569691 -0.0012462222 0.0074940715 0.0035403923 0.0053541204 -0.002827011 2.8017805e-05 0.011282666 0.0015464571 0.007424875 -0.010450196 0.0051530767 0.003486485 -0.009913131 0.006295481 -0.0024560424 0.0030510172 -0.002641966 0.002428503 0.00977035 -0.0032827936 0.0011071579 -0.0036594747 0.0035780084 -0.0032751996 0.005082281 -0.00644773 -0.0072638877 0.0043110717 -0.0012694967 -0.012412762 0.011086007 0.0046972297 -0.012000971 -0.004050206 -0.007353925 0.010359529 0.0040829233 0.007090769 0.008169406 0.0014735892 -0.0022146746 -0.002135768 0.01637979 -0.0035928215 -0.0047947583 0.0035246362 -0.0069702705 -0.0003749426 -0.0035779965 0.0046944786 -0.0053565917 0.0062740413 -0.00018557526 0.0013859757 -0.001535354 0.00042571718 0.006208566 0.0027192603 -0.009821225 -0.0012421926 -0.004053426 -0.012548777 -0.0066032936 0.00762512 -0.0062335115 0.0018871065 0.0012375703 -0.00795028 0.009475273 0.018708799 0.011477201 -0.0007197768 0.010862873 0.00051713845 0.011723133 0.006121844 -0.0036982684 -0.011329079 -0.003834117 0.0017244748 0.011128811 -0.0030111268 -0.0011093103 -0.011943739 -0.0053194505 -0.010466897 -0.00180825 0.0042888904 -0.00063293235 0.00988241 0.0057854797 -0.013575837 -0.0046725636 -0.0053257225 -0.0075895614 -0.0022956545 0.0058066347 -0.0006272303 -0.0006514401 -0.0025768434 0.002516346 -0.0051708645 0.0037465857 0.002875215 0.0008959351 -0.0069571193 0.0001658805 -0.0086797 0.006319377 -0.005059442 -0.0040208516 -0.0014736305 -0.012241335 0.0063823326
observa -0.002250554 -0.0049255 0.016162863 0.0059822034 -0.0017924956 -0.0018694391 -0.00027518597 0.009640353 0.0022174898 -0.009597485 0.00933187 -0.011631343 -0.006005502 0.004261776 0.002064331 -0.0027901377 0.0053874147 0.0102127725 0.002306847 -0.0055217375 0.013179224 0.016003732 0.002082746 -0.007752905 -0.0029900349 -0.0073355185 -0.008172086 0.015945498 0.00020425311 -0.010190994 -0.014499485 -0.0067262733 0.0040189605 0.005228985 -0.0007431883 -0.002276988 0.019331317 -0.0074150506 0.0034982248 -0.010011043 0.003432136 0.0029201128 -0.005525263 -0.012788678 0.012850653 0.0016702564 -0.009625971 -0.0004314166 -0.0070359698 0.0120565845 0.010628419 -0.002147804 0.0023558734 0.0065452717 -0.0019577977 0.0061431243 0.013928734 0.001876961 -0.012143074 0.003823774 -0.0055085355 0.0002662879 0.01110573 -0.0036501798 -0.0051604575 0.003901502 0.0014131457 0.0056100646 -0.0046517025 -0.00076623465 0.002738951 0.0075058565 -0.016694317 -0.011034926 0.00012480428 -0.009300957 0.0036509777 0.0026896978 -0.007197337 -0.00033016442 -0.010749719 -0.0005455767 0.007448074 0.005121792 0.0124930935 0.0075893034 0.015243749 -0.0061691063 0.0046821116 0.015573134 -0.0105865 -0.01466982 -0.0078104734 0.004509696 0.003283976 0.002611434 0.001227921 -0.007834773 -0.009378605 0.0026951781 -0.0045264456 -0.005364462 0.00567857 0.010189636 0.009520154 -0.009915461 0.006611581 -0.0060788575 -0.007962091 -0.0061949077 -0.0020144498 -0.003907216 -0.004331121 -0.0019810274 -0.0041516526 -0.00034102917 0.0076282797 0.014401959 0.0057590576 -0.007283515 -0.00971057 -0.0047214115 -0.00067687454 -0.0041644475 0.007613255 0.0013888908 -0.012687505 0.006952415
